<?xml version="1.0"?>
<MethodSetup Method="BDT::BDT">
  <GeneralInfo>
    <Info name="TMVA Release" value="4.2.1 [262657]"/>
    <Info name="ROOT Release" value="6.08/07 [395271]"/>
    <Info name="Creator" value="hua"/>
    <Info name="Date" value="Sun Nov 19 09:43:42 2017"/>
    <Info name="Host" value="Linux vocms0301.cern.ch 2.6.32-696.6.3.el6.x86_64 #1 SMP Wed Jul 12 07:40:03 CEST 2017 x86_64 x86_64 x86_64 GNU/Linux"/>
    <Info name="Dir" value="/afs/cern.ch/work/h/hua/Haa4b/CMSSW_9_2_14_patch1/src/UserCode/Haa4bTools/AnaModules"/>
    <Info name="Training events" value="893924"/>
    <Info name="TrainingTime" value="6.76010409e+02"/>
    <Info name="AnalysisType" value="Classification"/>
  </GeneralInfo>
  <Options>
    <Option name="V" modified="Yes">False</Option>
    <Option name="VerbosityLevel" modified="No">Default</Option>
    <Option name="VarTransform" modified="No">None</Option>
    <Option name="H" modified="Yes">False</Option>
    <Option name="CreateMVAPdfs" modified="No">False</Option>
    <Option name="IgnoreNegWeightsInTraining" modified="No">False</Option>
    <Option name="NTrees" modified="Yes">1000</Option>
    <Option name="MaxDepth" modified="Yes">4</Option>
    <Option name="MinNodeSize" modified="Yes">5.0%</Option>
    <Option name="nCuts" modified="Yes">20</Option>
    <Option name="BoostType" modified="Yes">AdaBoost</Option>
    <Option name="AdaBoostR2Loss" modified="No">quadratic</Option>
    <Option name="UseBaggedBoost" modified="Yes">True</Option>
    <Option name="Shrinkage" modified="No">1.000000e+00</Option>
    <Option name="AdaBoostBeta" modified="Yes">5.000000e-01</Option>
    <Option name="UseRandomisedTrees" modified="No">False</Option>
    <Option name="UseNvars" modified="No">3</Option>
    <Option name="UsePoissonNvars" modified="No">True</Option>
    <Option name="BaggedSampleFraction" modified="Yes">5.000000e-01</Option>
    <Option name="UseYesNoLeaf" modified="No">True</Option>
    <Option name="NegWeightTreatment" modified="Yes">inverseboostnegweights</Option>
    <Option name="Css" modified="No">1.000000e+00</Option>
    <Option name="Cts_sb" modified="No">1.000000e+00</Option>
    <Option name="Ctb_ss" modified="No">1.000000e+00</Option>
    <Option name="Cbb" modified="No">1.000000e+00</Option>
    <Option name="NodePurityLimit" modified="No">5.000000e-01</Option>
    <Option name="SeparationType" modified="Yes">giniindex</Option>
    <Option name="RegressionLossFunctionBDTG" modified="No">huber</Option>
    <Option name="HuberQuantile" modified="No">7.000000e-01</Option>
    <Option name="DoBoostMonitor" modified="No">False</Option>
    <Option name="UseFisherCuts" modified="No">False</Option>
    <Option name="MinLinCorrForFisher" modified="No">8.000000e-01</Option>
    <Option name="UseExclusiveVars" modified="No">False</Option>
    <Option name="DoPreselection" modified="No">False</Option>
    <Option name="SigToBkgFraction" modified="No">1.000000e+00</Option>
    <Option name="PruneMethod" modified="No">nopruning</Option>
    <Option name="PruneStrength" modified="No">0.000000e+00</Option>
    <Option name="PruningValFraction" modified="No">5.000000e-01</Option>
    <Option name="SkipNormalization" modified="No">False</Option>
    <Option name="nEventsMin" modified="No">0</Option>
    <Option name="UseBaggedGrad" modified="No">False</Option>
    <Option name="GradBaggingFraction" modified="No">5.000000e-01</Option>
    <Option name="UseNTrainEvents" modified="No">0</Option>
    <Option name="NNodesMax" modified="No">0</Option>
  </Options>
  <Variables NVar="6">
    <Variable VarIndex="0" Expression="WpT" Label="WpT" Title="WpT" Unit="" Internal="WpT" Type="F" Min="1.25356913e-01" Max="1.89755127e+03"/>
    <Variable VarIndex="1" Expression="Hmass" Label="Hmass" Title="Hmass" Unit="" Internal="Hmass" Type="F" Min="1.76662312e+01" Max="5.17823096e+03"/>
    <Variable VarIndex="2" Expression="HpT" Label="HpT" Title="HpT" Unit="" Internal="HpT" Type="F" Min="6.82411492e-02" Max="2.02501379e+03"/>
    <Variable VarIndex="3" Expression="bbdRAve" Label="bbdRAve" Title="bbdRAve" Unit="" Internal="bbdRAve" Type="F" Min="4.43021417e-01" Max="4.38310242e+00"/>
    <Variable VarIndex="4" Expression="HHt" Label="HHt" Title="HHt" Unit="" Internal="HHt" Type="F" Min="4.37344589e+01" Max="4.92576709e+03"/>
    <Variable VarIndex="5" Expression="WHdR" Label="WHdR" Title="WHdR" Unit="" Internal="WHdR" Type="F" Min="4.79474011e-06" Max="3.14159203e+00"/>
  </Variables>
  <Spectators NSpec="0"/>
  <Classes NClass="2">
    <Class Name="Signal" Index="0"/>
    <Class Name="Background" Index="1"/>
  </Classes>
  <Transformations NTransformations="0"/>
  <MVAPdfs/>
  <Weights NTrees="1000" AnalysisType="0">
    <BinaryTree type="DecisionTree" boostWeight="6.0798653905864719e-01" itree="0">
      <Node pos="s" depth="0" NCoef="0" IVar="3" Cut="1.9495254755020142e+00" cType="1" res="-9.9000000000000000e+01" rms="0.0000000000000000e+00" purity="5.0190222263336182e-01" nType="0">
        <Node pos="l" depth="1" NCoef="0" IVar="1" Cut="1.0551866912841797e+02" cType="1" res="-9.9000000000000000e+01" rms="0.0000000000000000e+00" purity="7.6197135448455811e-01" nType="0">
          <Node pos="l" depth="2" NCoef="0" IVar="-1" Cut="0.0000000000000000e+00" cType="1" res="-9.9000000000000000e+01" rms="0.0000000000000000e+00" purity="8.6573731899261475e-01" nType="1"/>
          <Node pos="r" depth="2" NCoef="0" IVar="5" Cut="2.6927709579467773e+00" cType="0" res="-9.9000000000000000e+01" rms="0.0000000000000000e+00" purity="6.1835789680480957e-01" nType="0">
            <Node pos="l" depth="3" NCoef="0" IVar="-1" Cut="0.0000000000000000e+00" cType="1" res="-9.9000000000000000e+01" rms="0.0000000000000000e+00" purity="7.3670208454132080e-01" nType="1"/>
            <Node pos="r" depth="3" NCoef="0" IVar="-1" Cut="0.0000000000000000e+00" cType="1" res="-9.9000000000000000e+01" rms="0.0000000000000000e+00" purity="4.0142419934272766e-01" nType="-1"/>
          </Node>
        </Node>
        <Node pos="r" depth="1" NCoef="0" IVar="3" Cut="2.2956748008728027e+00" cType="1" res="-9.9000000000000000e+01" rms="0.0000000000000000e+00" purity="3.3218008279800415e-01" nType="0">
          <Node pos="l" depth="2" NCoef="0" IVar="1" Cut="2.2405221557617188e+02" cType="1" res="-9.9000000000000000e+01" rms="0.0000000000000000e+00" purity="4.4929939508438110e-01" nType="0">
            <Node pos="l" depth="3" NCoef="0" IVar="1" Cut="1.3367501831054688e+02" cType="1" res="-9.9000000000000000e+01" rms="0.0000000000000000e+00" purity="5.3949356079101562e-01" nType="0">
              <Node pos="l" depth="4" NCoef="0" IVar="-1" Cut="0.0000000000000000e+00" cType="1" res="-9.9000000000000000e+01" rms="0.0000000000000000e+00" purity="7.2298830747604370e-01" nType="1"/>
              <Node pos="r" depth="4" NCoef="0" IVar="-1" Cut="0.0000000000000000e+00" cType="1" res="-9.9000000000000000e+01" rms="0.0000000000000000e+00" purity="2.5706481933593750e-01" nType="-1"/>
            </Node>
            <Node pos="r" depth="3" NCoef="0" IVar="-1" Cut="0.0000000000000000e+00" cType="1" res="-9.9000000000000000e+01" rms="0.0000000000000000e+00" purity="1.5966209769248962e-01" nType="-1"/>
          </Node>
          <Node pos="r" depth="2" NCoef="0" IVar="-1" Cut="2.6927866935729980e+00" cType="0" res="-9.9000000000000000e+01" rms="0.0000000000000000e+00" purity="2.4033023416996002e-01" nType="-1"/>
        </Node>
      </Node>
    </BinaryTree>
    <BinaryTree type="DecisionTree" boostWeight="4.5953165665390328e-01" itree="1">
      <Node pos="s" depth="0" NCoef="0" IVar="3" Cut="1.7666512727737427e+00" cType="1" res="-9.9000000000000000e+01" rms="0.0000000000000000e+00" purity="4.8049497604370117e-01" nType="0">
        <Node pos="l" depth="1" NCoef="0" IVar="-1" Cut="1.4551590681076050e+00" cType="1" res="-9.9000000000000000e+01" rms="0.0000000000000000e+00" purity="7.2905701398849487e-01" nType="1"/>
        <Node pos="r" depth="1" NCoef="0" IVar="3" Cut="2.3896241188049316e+00" cType="1" res="-9.9000000000000000e+01" rms="0.0000000000000000e+00" purity="3.6730808019638062e-01" nType="0">
          <Node pos="l" depth="2" NCoef="0" IVar="1" Cut="2.2342387390136719e+02" cType="1" res="-9.9000000000000000e+01" rms="0.0000000000000000e+00" purity="4.3376493453979492e-01" nType="0">
            <Node pos="l" depth="3" NCoef="0" IVar="1" Cut="1.2399362945556641e+02" cType="1" res="-9.9000000000000000e+01" rms="0.0000000000000000e+00" purity="4.9378910660743713e-01" nType="0">
              <Node pos="l" depth="4" NCoef="0" IVar="-1" Cut="0.0000000000000000e+00" cType="1" res="-9.9000000000000000e+01" rms="0.0000000000000000e+00" purity="6.4978671073913574e-01" nType="1"/>
              <Node pos="r" depth="4" NCoef="0" IVar="-1" Cut="0.0000000000000000e+00" cType="1" res="-9.9000000000000000e+01" rms="0.0000000000000000e+00" purity="3.0908614397048950e-01" nType="-1"/>
            </Node>
            <Node pos="r" depth="3" NCoef="0" IVar="-1" Cut="0.0000000000000000e+00" cType="1" res="-9.9000000000000000e+01" rms="0.0000000000000000e+00" purity="2.1673552691936493e-01" nType="-1"/>
          </Node>
          <Node pos="r" depth="2" NCoef="0" IVar="-1" Cut="2.5432136058807373e+00" cType="0" res="-9.9000000000000000e+01" rms="0.0000000000000000e+00" purity="2.6969328522682190e-01" nType="-1"/>
        </Node>
      </Node>
    </BinaryTree>
    <BinaryTree type="DecisionTree" boostWeight="3.4197943374147599e-01" itree="2">
      <Node pos="s" depth="0" NCoef="0" IVar="3" Cut="1.5657473802566528e+00" cType="1" res="-9.9000000000000000e+01" rms="0.0000000000000000e+00" purity="4.7348523139953613e-01" nType="0">
        <Node pos="l" depth="1" NCoef="0" IVar="-1" Cut="0.0000000000000000e+00" cType="1" res="-9.9000000000000000e+01" rms="0.0000000000000000e+00" purity="7.0979666709899902e-01" nType="1"/>
        <Node pos="r" depth="1" NCoef="0" IVar="4" Cut="2.0164231872558594e+02" cType="1" res="-9.9000000000000000e+01" rms="0.0000000000000000e+00" purity="4.0034052729606628e-01" nType="0">
          <Node pos="l" depth="2" NCoef="0" IVar="1" Cut="1.4928935241699219e+02" cType="1" res="-9.9000000000000000e+01" rms="0.0000000000000000e+00" purity="4.4689977169036865e-01" nType="0">
            <Node pos="l" depth="3" NCoef="0" IVar="1" Cut="1.0930381011962891e+02" cType="1" res="-9.9000000000000000e+01" rms="0.0000000000000000e+00" purity="5.4037320613861084e-01" nType="0">
              <Node pos="l" depth="4" NCoef="0" IVar="-1" Cut="0.0000000000000000e+00" cType="1" res="-9.9000000000000000e+01" rms="0.0000000000000000e+00" purity="5.9288823604583740e-01" nType="1"/>
              <Node pos="r" depth="4" NCoef="0" IVar="-1" Cut="0.0000000000000000e+00" cType="1" res="-9.9000000000000000e+01" rms="0.0000000000000000e+00" purity="4.5839664340019226e-01" nType="-1"/>
            </Node>
            <Node pos="r" depth="3" NCoef="0" IVar="-1" Cut="2.8423993587493896e+00" cType="0" res="-9.9000000000000000e+01" rms="0.0000000000000000e+00" purity="3.1272730231285095e-01" nType="-1"/>
          </Node>
          <Node pos="r" depth="2" NCoef="0" IVar="-1" Cut="1.4891461181640625e+02" cType="0" res="-9.9000000000000000e+01" rms="0.0000000000000000e+00" purity="2.4974361062049866e-01" nType="-1"/>
        </Node>
      </Node>
    </BinaryTree>
    <BinaryTree type="DecisionTree" boostWeight="3.1161331781833534e-01" itree="3">
      <Node pos="s" depth="0" NCoef="0" IVar="3" Cut="1.3822797536849976e+00" cType="1" res="-9.9000000000000000e+01" rms="0.0000000000000000e+00" purity="4.7625023126602173e-01" nType="0">
        <Node pos="l" depth="1" NCoef="0" IVar="-1" Cut="0.0000000000000000e+00" cType="1" res="-9.9000000000000000e+01" rms="0.0000000000000000e+00" purity="7.1051812171936035e-01" nType="1"/>
        <Node pos="r" depth="1" NCoef="0" IVar="4" Cut="1.9140762329101562e+02" cType="1" res="-9.9000000000000000e+01" rms="0.0000000000000000e+00" purity="4.2714384198188782e-01" nType="0">
          <Node pos="l" depth="2" NCoef="0" IVar="1" Cut="1.5301287841796875e+02" cType="1" res="-9.9000000000000000e+01" rms="0.0000000000000000e+00" purity="4.8338806629180908e-01" nType="0">
            <Node pos="l" depth="3" NCoef="0" IVar="5" Cut="1.7952359914779663e+00" cType="0" res="-9.9000000000000000e+01" rms="0.0000000000000000e+00" purity="5.4242813587188721e-01" nType="0">
              <Node pos="l" depth="4" NCoef="0" IVar="-1" Cut="0.0000000000000000e+00" cType="1" res="-9.9000000000000000e+01" rms="0.0000000000000000e+00" purity="5.8682805299758911e-01" nType="1"/>
              <Node pos="r" depth="4" NCoef="0" IVar="-1" Cut="0.0000000000000000e+00" cType="1" res="-9.9000000000000000e+01" rms="0.0000000000000000e+00" purity="3.9686694741249084e-01" nType="-1"/>
            </Node>
            <Node pos="r" depth="3" NCoef="0" IVar="-1" Cut="2.2440135478973389e+00" cType="0" res="-9.9000000000000000e+01" rms="0.0000000000000000e+00" purity="3.6335986852645874e-01" nType="-1"/>
          </Node>
          <Node pos="r" depth="2" NCoef="0" IVar="-1" Cut="1.7340734863281250e+02" cType="0" res="-9.9000000000000000e+01" rms="0.0000000000000000e+00" purity="2.7067530155181885e-01" nType="-1"/>
        </Node>
      </Node>
    </BinaryTree>
    <BinaryTree type="DecisionTree" boostWeight="2.6790637775879228e-01" itree="4">
      <Node pos="s" depth="0" NCoef="0" IVar="5" Cut="2.6927974224090576e+00" cType="0" res="-9.9000000000000000e+01" rms="0.0000000000000000e+00" purity="4.7410824894905090e-01" nType="0">
        <Node pos="l" depth="1" NCoef="0" IVar="3" Cut="1.5869766473770142e+00" cType="1" res="-9.9000000000000000e+01" rms="0.0000000000000000e+00" purity="5.7700252532958984e-01" nType="0">
          <Node pos="l" depth="2" NCoef="0" IVar="-1" Cut="0.0000000000000000e+00" cType="1" res="-9.9000000000000000e+01" rms="0.0000000000000000e+00" purity="7.1135300397872925e-01" nType="1"/>
          <Node pos="r" depth="2" NCoef="0" IVar="4" Cut="2.0139842224121094e+02" cType="1" res="-9.9000000000000000e+01" rms="0.0000000000000000e+00" purity="5.1077157258987427e-01" nType="0">
            <Node pos="l" depth="3" NCoef="0" IVar="4" Cut="1.4898616027832031e+02" cType="1" res="-9.9000000000000000e+01" rms="0.0000000000000000e+00" purity="5.4910773038864136e-01" nType="0">
              <Node pos="l" depth="4" NCoef="0" IVar="-1" Cut="0.0000000000000000e+00" cType="1" res="-9.9000000000000000e+01" rms="0.0000000000000000e+00" purity="5.9708660840988159e-01" nType="1"/>
              <Node pos="r" depth="4" NCoef="0" IVar="-1" Cut="0.0000000000000000e+00" cType="1" res="-9.9000000000000000e+01" rms="0.0000000000000000e+00" purity="4.3502384424209595e-01" nType="-1"/>
            </Node>
            <Node pos="r" depth="3" NCoef="0" IVar="-1" Cut="0.0000000000000000e+00" cType="1" res="-9.9000000000000000e+01" rms="0.0000000000000000e+00" purity="4.1690555214881897e-01" nType="-1"/>
          </Node>
        </Node>
        <Node pos="r" depth="1" NCoef="0" IVar="4" Cut="1.9137062072753906e+02" cType="1" res="-9.9000000000000000e+01" rms="0.0000000000000000e+00" purity="3.7740096449851990e-01" nType="0">
          <Node pos="l" depth="2" NCoef="0" IVar="1" Cut="1.4012121582031250e+02" cType="1" res="-9.9000000000000000e+01" rms="0.0000000000000000e+00" purity="4.2162862420082092e-01" nType="0">
            <Node pos="l" depth="3" NCoef="0" IVar="2" Cut="6.3370700836181641e+01" cType="1" res="-9.9000000000000000e+01" rms="0.0000000000000000e+00" purity="4.7537031769752502e-01" nType="0">
              <Node pos="l" depth="4" NCoef="0" IVar="-1" Cut="0.0000000000000000e+00" cType="1" res="-9.9000000000000000e+01" rms="0.0000000000000000e+00" purity="5.1968169212341309e-01" nType="1"/>
              <Node pos="r" depth="4" NCoef="0" IVar="-1" Cut="0.0000000000000000e+00" cType="1" res="-9.9000000000000000e+01" rms="0.0000000000000000e+00" purity="4.1660973429679871e-01" nType="-1"/>
            </Node>
            <Node pos="r" depth="3" NCoef="0" IVar="-1" Cut="1.5004751586914062e+02" cType="1" res="-9.9000000000000000e+01" rms="0.0000000000000000e+00" purity="3.2381099462509155e-01" nType="-1"/>
          </Node>
          <Node pos="r" depth="2" NCoef="0" IVar="-1" Cut="1.9234334230422974e+00" cType="0" res="-9.9000000000000000e+01" rms="0.0000000000000000e+00" purity="2.2025343775749207e-01" nType="-1"/>
        </Node>
      </Node>
    </BinaryTree>
    <BinaryTree type="DecisionTree" boostWeight="2.0176233503143690e-01" itree="5">
      <Node pos="s" depth="0" NCoef="0" IVar="3" Cut="1.3831987380981445e+00" cType="1" res="-9.9000000000000000e+01" rms="0.0000000000000000e+00" purity="4.5350021123886108e-01" nType="0">
        <Node pos="l" depth="1" NCoef="0" IVar="-1" Cut="0.0000000000000000e+00" cType="1" res="-9.9000000000000000e+01" rms="0.0000000000000000e+00" purity="6.2340474128723145e-01" nType="1"/>
        <Node pos="r" depth="1" NCoef="0" IVar="5" Cut="2.5431947708129883e+00" cType="0" res="-9.9000000000000000e+01" rms="0.0000000000000000e+00" purity="4.1738724708557129e-01" nType="0">
          <Node pos="l" depth="2" NCoef="0" IVar="3" Cut="1.8117756843566895e+00" cType="0" res="-9.9000000000000000e+01" rms="0.0000000000000000e+00" purity="4.6411120891571045e-01" nType="0">
            <Node pos="l" depth="3" NCoef="0" IVar="5" Cut="2.9136352539062500e+00" cType="0" res="-9.9000000000000000e+01" rms="0.0000000000000000e+00" purity="4.9319177865982056e-01" nType="0">
              <Node pos="l" depth="4" NCoef="0" IVar="-1" Cut="0.0000000000000000e+00" cType="1" res="-9.9000000000000000e+01" rms="0.0000000000000000e+00" purity="5.3149366378784180e-01" nType="1"/>
              <Node pos="r" depth="4" NCoef="0" IVar="-1" Cut="0.0000000000000000e+00" cType="1" res="-9.9000000000000000e+01" rms="0.0000000000000000e+00" purity="4.5539417862892151e-01" nType="-1"/>
            </Node>
            <Node pos="r" depth="3" NCoef="0" IVar="-1" Cut="0.0000000000000000e+00" cType="1" res="-9.9000000000000000e+01" rms="0.0000000000000000e+00" purity="4.0029394626617432e-01" nType="-1"/>
          </Node>
          <Node pos="r" depth="2" NCoef="0" IVar="-1" Cut="1.9189947509765625e+02" cType="1" res="-9.9000000000000000e+01" rms="0.0000000000000000e+00" purity="3.5998475551605225e-01" nType="-1"/>
        </Node>
      </Node>
    </BinaryTree>
    <BinaryTree type="DecisionTree" boostWeight="2.1147373430730348e-01" itree="6">
      <Node pos="s" depth="0" NCoef="0" IVar="5" Cut="2.5431931018829346e+00" cType="0" res="-9.9000000000000000e+01" rms="0.0000000000000000e+00" purity="4.7304785251617432e-01" nType="0">
        <Node pos="l" depth="1" NCoef="0" IVar="3" Cut="1.5797619819641113e+00" cType="1" res="-9.9000000000000000e+01" rms="0.0000000000000000e+00" purity="5.3749585151672363e-01" nType="0">
          <Node pos="l" depth="2" NCoef="0" IVar="-1" Cut="0.0000000000000000e+00" cType="1" res="-9.9000000000000000e+01" rms="0.0000000000000000e+00" purity="6.5398305654525757e-01" nType="1"/>
          <Node pos="r" depth="2" NCoef="0" IVar="4" Cut="2.0310054016113281e+02" cType="1" res="-9.9000000000000000e+01" rms="0.0000000000000000e+00" purity="4.8687690496444702e-01" nType="0">
            <Node pos="l" depth="3" NCoef="0" IVar="4" Cut="1.2826570129394531e+02" cType="1" res="-9.9000000000000000e+01" rms="0.0000000000000000e+00" purity="5.1220911741256714e-01" nType="0">
              <Node pos="l" depth="4" NCoef="0" IVar="-1" Cut="0.0000000000000000e+00" cType="1" res="-9.9000000000000000e+01" rms="0.0000000000000000e+00" purity="5.7511192560195923e-01" nType="1"/>
              <Node pos="r" depth="4" NCoef="0" IVar="-1" Cut="0.0000000000000000e+00" cType="1" res="-9.9000000000000000e+01" rms="0.0000000000000000e+00" purity="4.3960604071617126e-01" nType="-1"/>
            </Node>
            <Node pos="r" depth="3" NCoef="0" IVar="-1" Cut="0.0000000000000000e+00" cType="1" res="-9.9000000000000000e+01" rms="0.0000000000000000e+00" purity="4.1643086075782776e-01" nType="-1"/>
          </Node>
        </Node>
        <Node pos="r" depth="1" NCoef="0" IVar="4" Cut="1.8063227844238281e+02" cType="1" res="-9.9000000000000000e+01" rms="0.0000000000000000e+00" purity="3.8628384470939636e-01" nType="0">
          <Node pos="l" depth="2" NCoef="0" IVar="4" Cut="1.4152833557128906e+02" cType="1" res="-9.9000000000000000e+01" rms="0.0000000000000000e+00" purity="4.3697050213813782e-01" nType="0">
            <Node pos="l" depth="3" NCoef="0" IVar="2" Cut="4.7095943450927734e+01" cType="1" res="-9.9000000000000000e+01" rms="0.0000000000000000e+00" purity="4.6140766143798828e-01" nType="0">
              <Node pos="l" depth="4" NCoef="0" IVar="-1" Cut="0.0000000000000000e+00" cType="1" res="-9.9000000000000000e+01" rms="0.0000000000000000e+00" purity="5.0011974573135376e-01" nType="1"/>
              <Node pos="r" depth="4" NCoef="0" IVar="-1" Cut="0.0000000000000000e+00" cType="1" res="-9.9000000000000000e+01" rms="0.0000000000000000e+00" purity="4.2472898960113525e-01" nType="-1"/>
            </Node>
            <Node pos="r" depth="3" NCoef="0" IVar="-1" Cut="0.0000000000000000e+00" cType="1" res="-9.9000000000000000e+01" rms="0.0000000000000000e+00" purity="3.4152948856353760e-01" nType="-1"/>
          </Node>
          <Node pos="r" depth="2" NCoef="0" IVar="-1" Cut="1.8165516853332520e+00" cType="0" res="-9.9000000000000000e+01" rms="0.0000000000000000e+00" purity="2.3494485020637512e-01" nType="-1"/>
        </Node>
      </Node>
    </BinaryTree>
    <BinaryTree type="DecisionTree" boostWeight="1.6710857658510767e-01" itree="7">
      <Node pos="s" depth="0" NCoef="0" IVar="5" Cut="2.3935928344726562e+00" cType="0" res="-9.9000000000000000e+01" rms="0.0000000000000000e+00" purity="4.7153466939926147e-01" nType="0">
        <Node pos="l" depth="1" NCoef="0" IVar="3" Cut="1.5698312520980835e+00" cType="1" res="-9.9000000000000000e+01" rms="0.0000000000000000e+00" purity="5.2379554510116577e-01" nType="0">
          <Node pos="l" depth="2" NCoef="0" IVar="-1" Cut="0.0000000000000000e+00" cType="1" res="-9.9000000000000000e+01" rms="0.0000000000000000e+00" purity="6.1506092548370361e-01" nType="1"/>
          <Node pos="r" depth="2" NCoef="0" IVar="2" Cut="1.3709082031250000e+02" cType="0" res="-9.9000000000000000e+01" rms="0.0000000000000000e+00" purity="4.8680007457733154e-01" nType="0">
            <Node pos="l" depth="3" NCoef="0" IVar="-1" Cut="0.0000000000000000e+00" cType="1" res="-9.9000000000000000e+01" rms="0.0000000000000000e+00" purity="5.4424113035202026e-01" nType="1"/>
            <Node pos="r" depth="3" NCoef="0" IVar="1" Cut="2.2394882202148438e+02" cType="1" res="-9.9000000000000000e+01" rms="0.0000000000000000e+00" purity="4.7507715225219727e-01" nType="0">
              <Node pos="l" depth="4" NCoef="0" IVar="-1" Cut="0.0000000000000000e+00" cType="1" res="-9.9000000000000000e+01" rms="0.0000000000000000e+00" purity="5.0832396745681763e-01" nType="1"/>
              <Node pos="r" depth="4" NCoef="0" IVar="-1" Cut="0.0000000000000000e+00" cType="1" res="-9.9000000000000000e+01" rms="0.0000000000000000e+00" purity="3.6784315109252930e-01" nType="-1"/>
            </Node>
          </Node>
        </Node>
        <Node pos="r" depth="1" NCoef="0" IVar="-1" Cut="2.1848222351074219e+02" cType="1" res="-9.9000000000000000e+01" rms="0.0000000000000000e+00" purity="3.7765172123908997e-01" nType="-1"/>
      </Node>
    </BinaryTree>
    <BinaryTree type="DecisionTree" boostWeight="1.7700853767030217e-01" itree="8">
      <Node pos="s" depth="0" NCoef="0" IVar="3" Cut="1.3788795471191406e+00" cType="1" res="-9.9000000000000000e+01" rms="0.0000000000000000e+00" purity="4.6322715282440186e-01" nType="0">
        <Node pos="l" depth="1" NCoef="0" IVar="-1" Cut="0.0000000000000000e+00" cType="1" res="-9.9000000000000000e+01" rms="0.0000000000000000e+00" purity="5.9540420770645142e-01" nType="1"/>
        <Node pos="r" depth="1" NCoef="0" IVar="4" Cut="2.0102827453613281e+02" cType="1" res="-9.9000000000000000e+01" rms="0.0000000000000000e+00" purity="4.3691956996917725e-01" nType="0">
          <Node pos="l" depth="2" NCoef="0" IVar="1" Cut="1.1243952178955078e+02" cType="1" res="-9.9000000000000000e+01" rms="0.0000000000000000e+00" purity="4.6069055795669556e-01" nType="0">
            <Node pos="l" depth="3" NCoef="0" IVar="-1" Cut="0.0000000000000000e+00" cType="1" res="-9.9000000000000000e+01" rms="0.0000000000000000e+00" purity="5.3494662046432495e-01" nType="1"/>
            <Node pos="r" depth="3" NCoef="0" IVar="-1" Cut="1.3464504480361938e+00" cType="0" res="-9.9000000000000000e+01" rms="0.0000000000000000e+00" purity="4.1261461377143860e-01" nType="-1"/>
          </Node>
          <Node pos="r" depth="2" NCoef="0" IVar="0" Cut="1.8090911865234375e+02" cType="0" res="-9.9000000000000000e+01" rms="0.0000000000000000e+00" purity="3.5822802782058716e-01" nType="0">
            <Node pos="l" depth="3" NCoef="0" IVar="-1" Cut="0.0000000000000000e+00" cType="1" res="-9.9000000000000000e+01" rms="0.0000000000000000e+00" purity="5.1442998647689819e-01" nType="1"/>
            <Node pos="r" depth="3" NCoef="0" IVar="-1" Cut="2.6928000450134277e+00" cType="0" res="-9.9000000000000000e+01" rms="0.0000000000000000e+00" purity="2.9811701178550720e-01" nType="-1"/>
          </Node>
        </Node>
      </Node>
    </BinaryTree>
    <BinaryTree type="DecisionTree" boostWeight="1.5470577336866198e-01" itree="9">
      <Node pos="s" depth="0" NCoef="0" IVar="3" Cut="1.3790704011917114e+00" cType="1" res="-9.9000000000000000e+01" rms="0.0000000000000000e+00" purity="4.5144185423851013e-01" nType="0">
        <Node pos="l" depth="1" NCoef="0" IVar="-1" Cut="0.0000000000000000e+00" cType="1" res="-9.9000000000000000e+01" rms="0.0000000000000000e+00" purity="5.7487052679061890e-01" nType="1"/>
        <Node pos="r" depth="1" NCoef="0" IVar="5" Cut="2.2439956665039062e+00" cType="0" res="-9.9000000000000000e+01" rms="0.0000000000000000e+00" purity="4.2746055126190186e-01" nType="0">
          <Node pos="l" depth="2" NCoef="0" IVar="-1" Cut="1.8040167093276978e+00" cType="0" res="-9.9000000000000000e+01" rms="0.0000000000000000e+00" purity="4.5006048679351807e-01" nType="-1"/>
          <Node pos="r" depth="2" NCoef="0" IVar="4" Cut="1.7342518615722656e+02" cType="1" res="-9.9000000000000000e+01" rms="0.0000000000000000e+00" purity="3.7968039512634277e-01" nType="0">
            <Node pos="l" depth="3" NCoef="0" IVar="0" Cut="4.2021068572998047e+01" cType="1" res="-9.9000000000000000e+01" rms="0.0000000000000000e+00" purity="4.3156307935714722e-01" nType="0">
              <Node pos="l" depth="4" NCoef="0" IVar="-1" Cut="0.0000000000000000e+00" cType="1" res="-9.9000000000000000e+01" rms="0.0000000000000000e+00" purity="5.2492499351501465e-01" nType="1"/>
              <Node pos="r" depth="4" NCoef="0" IVar="-1" Cut="0.0000000000000000e+00" cType="1" res="-9.9000000000000000e+01" rms="0.0000000000000000e+00" purity="3.7324377894401550e-01" nType="-1"/>
            </Node>
            <Node pos="r" depth="3" NCoef="0" IVar="-1" Cut="0.0000000000000000e+00" cType="1" res="-9.9000000000000000e+01" rms="0.0000000000000000e+00" purity="2.3060208559036255e-01" nType="-1"/>
          </Node>
        </Node>
      </Node>
    </BinaryTree>
    <BinaryTree type="DecisionTree" boostWeight="1.2983581453856921e-01" itree="10">
      <Node pos="s" depth="0" NCoef="0" IVar="5" Cut="1.9448052644729614e+00" cType="0" res="-9.9000000000000000e+01" rms="0.0000000000000000e+00" purity="4.6202358603477478e-01" nType="0">
        <Node pos="l" depth="1" NCoef="0" IVar="3" Cut="1.5850617885589600e+00" cType="1" res="-9.9000000000000000e+01" rms="0.0000000000000000e+00" purity="4.8744511604309082e-01" nType="0">
          <Node pos="l" depth="2" NCoef="0" IVar="-1" Cut="0.0000000000000000e+00" cType="1" res="-9.9000000000000000e+01" rms="0.0000000000000000e+00" purity="5.5221611261367798e-01" nType="1"/>
          <Node pos="r" depth="2" NCoef="0" IVar="5" Cut="2.5717017650604248e+00" cType="0" res="-9.9000000000000000e+01" rms="0.0000000000000000e+00" purity="4.6384263038635254e-01" nType="0">
            <Node pos="l" depth="3" NCoef="0" IVar="5" Cut="3.0601782798767090e+00" cType="0" res="-9.9000000000000000e+01" rms="0.0000000000000000e+00" purity="4.7499224543571472e-01" nType="0">
              <Node pos="l" depth="4" NCoef="0" IVar="-1" Cut="0.0000000000000000e+00" cType="1" res="-9.9000000000000000e+01" rms="0.0000000000000000e+00" purity="5.3337699174880981e-01" nType="1"/>
              <Node pos="r" depth="4" NCoef="0" IVar="-1" Cut="0.0000000000000000e+00" cType="1" res="-9.9000000000000000e+01" rms="0.0000000000000000e+00" purity="4.6106424927711487e-01" nType="-1"/>
            </Node>
            <Node pos="r" depth="3" NCoef="0" IVar="-1" Cut="1.3384706115722656e+02" cType="1" res="-9.9000000000000000e+01" rms="0.0000000000000000e+00" purity="4.3712723255157471e-01" nType="-1"/>
          </Node>
        </Node>
        <Node pos="r" depth="1" NCoef="0" IVar="-1" Cut="1.9607620239257812e+02" cType="1" res="-9.9000000000000000e+01" rms="0.0000000000000000e+00" purity="3.7714776396751404e-01" nType="-1"/>
      </Node>
    </BinaryTree>
    <BinaryTree type="DecisionTree" boostWeight="1.8858743744710404e-01" itree="11">
      <Node pos="s" depth="0" NCoef="0" IVar="5" Cut="2.2439944744110107e+00" cType="0" res="-9.9000000000000000e+01" rms="0.0000000000000000e+00" purity="4.8248970508575439e-01" nType="0">
        <Node pos="l" depth="1" NCoef="0" IVar="5" Cut="2.7569077014923096e+00" cType="0" res="-9.9000000000000000e+01" rms="0.0000000000000000e+00" purity="5.1293241977691650e-01" nType="0">
          <Node pos="l" depth="2" NCoef="0" IVar="1" Cut="2.2513439941406250e+02" cType="1" res="-9.9000000000000000e+01" rms="0.0000000000000000e+00" purity="5.3425014019012451e-01" nType="0">
            <Node pos="l" depth="3" NCoef="0" IVar="1" Cut="1.2722735595703125e+02" cType="1" res="-9.9000000000000000e+01" rms="0.0000000000000000e+00" purity="5.5506497621536255e-01" nType="0">
              <Node pos="l" depth="4" NCoef="0" IVar="-1" Cut="0.0000000000000000e+00" cType="1" res="-9.9000000000000000e+01" rms="0.0000000000000000e+00" purity="6.4257568120956421e-01" nType="1"/>
              <Node pos="r" depth="4" NCoef="0" IVar="-1" Cut="0.0000000000000000e+00" cType="1" res="-9.9000000000000000e+01" rms="0.0000000000000000e+00" purity="4.3294897675514221e-01" nType="-1"/>
            </Node>
            <Node pos="r" depth="3" NCoef="0" IVar="-1" Cut="2.9950463771820068e+00" cType="1" res="-9.9000000000000000e+01" rms="0.0000000000000000e+00" purity="4.6830245852470398e-01" nType="-1"/>
          </Node>
          <Node pos="r" depth="2" NCoef="0" IVar="0" Cut="1.1208827209472656e+02" cType="1" res="-9.9000000000000000e+01" rms="0.0000000000000000e+00" purity="4.7476294636726379e-01" nType="0">
            <Node pos="l" depth="3" NCoef="0" IVar="4" Cut="1.5227572631835938e+02" cType="1" res="-9.9000000000000000e+01" rms="0.0000000000000000e+00" purity="4.9307736754417419e-01" nType="0">
              <Node pos="l" depth="4" NCoef="0" IVar="-1" Cut="0.0000000000000000e+00" cType="1" res="-9.9000000000000000e+01" rms="0.0000000000000000e+00" purity="5.4489421844482422e-01" nType="1"/>
              <Node pos="r" depth="4" NCoef="0" IVar="-1" Cut="0.0000000000000000e+00" cType="1" res="-9.9000000000000000e+01" rms="0.0000000000000000e+00" purity="3.6551544070243835e-01" nType="-1"/>
            </Node>
            <Node pos="r" depth="3" NCoef="0" IVar="-1" Cut="0.0000000000000000e+00" cType="1" res="-9.9000000000000000e+01" rms="0.0000000000000000e+00" purity="4.2550948262214661e-01" nType="-1"/>
          </Node>
        </Node>
        <Node pos="r" depth="1" NCoef="0" IVar="4" Cut="1.5228883361816406e+02" cType="1" res="-9.9000000000000000e+01" rms="0.0000000000000000e+00" purity="4.1029933094978333e-01" nType="0">
          <Node pos="l" depth="2" NCoef="0" IVar="0" Cut="6.1425296783447266e+01" cType="1" res="-9.9000000000000000e+01" rms="0.0000000000000000e+00" purity="4.7423687577247620e-01" nType="0">
            <Node pos="l" depth="3" NCoef="0" IVar="-1" Cut="0.0000000000000000e+00" cType="1" res="-9.9000000000000000e+01" rms="0.0000000000000000e+00" purity="5.3048253059387207e-01" nType="1"/>
            <Node pos="r" depth="3" NCoef="0" IVar="-1" Cut="0.0000000000000000e+00" cType="1" res="-9.9000000000000000e+01" rms="0.0000000000000000e+00" purity="3.9248913526535034e-01" nType="-1"/>
          </Node>
          <Node pos="r" depth="2" NCoef="0" IVar="-1" Cut="0.0000000000000000e+00" cType="1" res="-9.9000000000000000e+01" rms="0.0000000000000000e+00" purity="2.9146558046340942e-01" nType="-1"/>
        </Node>
      </Node>
    </BinaryTree>
    <BinaryTree type="DecisionTree" boostWeight="1.5283359695358023e-01" itree="12">
      <Node pos="s" depth="0" NCoef="0" IVar="5" Cut="2.8423917293548584e+00" cType="0" res="-9.9000000000000000e+01" rms="0.0000000000000000e+00" purity="4.8618942499160767e-01" nType="0">
        <Node pos="l" depth="1" NCoef="0" IVar="0" Cut="1.8140090942382812e+02" cType="0" res="-9.9000000000000000e+01" rms="0.0000000000000000e+00" purity="5.3280544281005859e-01" nType="0">
          <Node pos="l" depth="2" NCoef="0" IVar="-1" Cut="0.0000000000000000e+00" cType="1" res="-9.9000000000000000e+01" rms="0.0000000000000000e+00" purity="5.9048920869827271e-01" nType="1"/>
          <Node pos="r" depth="2" NCoef="0" IVar="4" Cut="2.0378417968750000e+02" cType="1" res="-9.9000000000000000e+01" rms="0.0000000000000000e+00" purity="5.1873207092285156e-01" nType="0">
            <Node pos="l" depth="3" NCoef="0" IVar="-1" Cut="1.0397435760498047e+02" cType="0" res="-9.9000000000000000e+01" rms="0.0000000000000000e+00" purity="5.4685980081558228e-01" nType="1"/>
            <Node pos="r" depth="3" NCoef="0" IVar="-1" Cut="0.0000000000000000e+00" cType="1" res="-9.9000000000000000e+01" rms="0.0000000000000000e+00" purity="3.9477068185806274e-01" nType="-1"/>
          </Node>
        </Node>
        <Node pos="r" depth="1" NCoef="0" IVar="4" Cut="1.6416532897949219e+02" cType="1" res="-9.9000000000000000e+01" rms="0.0000000000000000e+00" purity="4.5746639370918274e-01" nType="0">
          <Node pos="l" depth="2" NCoef="0" IVar="3" Cut="2.5026416778564453e+00" cType="1" res="-9.9000000000000000e+01" rms="0.0000000000000000e+00" purity="4.9724718928337097e-01" nType="0">
            <Node pos="l" depth="3" NCoef="0" IVar="2" Cut="8.5549919128417969e+01" cType="1" res="-9.9000000000000000e+01" rms="0.0000000000000000e+00" purity="5.1842331886291504e-01" nType="0">
              <Node pos="l" depth="4" NCoef="0" IVar="-1" Cut="0.0000000000000000e+00" cType="1" res="-9.9000000000000000e+01" rms="0.0000000000000000e+00" purity="5.5286115407943726e-01" nType="1"/>
              <Node pos="r" depth="4" NCoef="0" IVar="-1" Cut="0.0000000000000000e+00" cType="1" res="-9.9000000000000000e+01" rms="0.0000000000000000e+00" purity="4.2616146802902222e-01" nType="-1"/>
            </Node>
            <Node pos="r" depth="3" NCoef="0" IVar="-1" Cut="2.8588175773620605e+00" cType="0" res="-9.9000000000000000e+01" rms="0.0000000000000000e+00" purity="4.3205708265304565e-01" nType="-1"/>
          </Node>
          <Node pos="r" depth="2" NCoef="0" IVar="-1" Cut="2.4363451004028320e+00" cType="0" res="-9.9000000000000000e+01" rms="0.0000000000000000e+00" purity="3.6580494046211243e-01" nType="-1"/>
        </Node>
      </Node>
    </BinaryTree>
    <BinaryTree type="DecisionTree" boostWeight="1.2175746798219129e-01" itree="13">
      <Node pos="s" depth="0" NCoef="0" IVar="5" Cut="1.9447969198226929e+00" cType="0" res="-9.9000000000000000e+01" rms="0.0000000000000000e+00" purity="4.6576490998268127e-01" nType="0">
        <Node pos="l" depth="1" NCoef="0" IVar="2" Cut="1.4780068969726562e+02" cType="0" res="-9.9000000000000000e+01" rms="0.0000000000000000e+00" purity="4.8783436417579651e-01" nType="0">
          <Node pos="l" depth="2" NCoef="0" IVar="5" Cut="2.9136457443237305e+00" cType="0" res="-9.9000000000000000e+01" rms="0.0000000000000000e+00" purity="5.2704834938049316e-01" nType="0">
            <Node pos="l" depth="3" NCoef="0" IVar="-1" Cut="0.0000000000000000e+00" cType="1" res="-9.9000000000000000e+01" rms="0.0000000000000000e+00" purity="5.7183676958084106e-01" nType="1"/>
            <Node pos="r" depth="3" NCoef="0" IVar="-1" Cut="0.0000000000000000e+00" cType="1" res="-9.9000000000000000e+01" rms="0.0000000000000000e+00" purity="4.6274045109748840e-01" nType="-1"/>
          </Node>
          <Node pos="r" depth="2" NCoef="0" IVar="4" Cut="1.5347866821289062e+02" cType="1" res="-9.9000000000000000e+01" rms="0.0000000000000000e+00" purity="4.7875681519508362e-01" nType="0">
            <Node pos="l" depth="3" NCoef="0" IVar="3" Cut="1.9397989511489868e+00" cType="1" res="-9.9000000000000000e+01" rms="0.0000000000000000e+00" purity="5.0112938880920410e-01" nType="0">
              <Node pos="l" depth="4" NCoef="0" IVar="-1" Cut="0.0000000000000000e+00" cType="1" res="-9.9000000000000000e+01" rms="0.0000000000000000e+00" purity="5.3508359193801880e-01" nType="1"/>
              <Node pos="r" depth="4" NCoef="0" IVar="-1" Cut="0.0000000000000000e+00" cType="1" res="-9.9000000000000000e+01" rms="0.0000000000000000e+00" purity="4.7265070676803589e-01" nType="-1"/>
            </Node>
            <Node pos="r" depth="3" NCoef="0" IVar="-1" Cut="2.6286909580230713e+00" cType="0" res="-9.9000000000000000e+01" rms="0.0000000000000000e+00" purity="4.2482340335845947e-01" nType="-1"/>
          </Node>
        </Node>
        <Node pos="r" depth="1" NCoef="0" IVar="-1" Cut="1.5303056335449219e+02" cType="1" res="-9.9000000000000000e+01" rms="0.0000000000000000e+00" purity="3.9258489012718201e-01" nType="-1"/>
      </Node>
    </BinaryTree>
    <BinaryTree type="DecisionTree" boostWeight="1.0015674752017883e-01" itree="14">
      <Node pos="s" depth="0" NCoef="0" IVar="5" Cut="1.9447958469390869e+00" cType="0" res="-9.9000000000000000e+01" rms="0.0000000000000000e+00" purity="4.8312801122665405e-01" nType="0">
        <Node pos="l" depth="1" NCoef="0" IVar="5" Cut="2.7996490001678467e+00" cType="0" res="-9.9000000000000000e+01" rms="0.0000000000000000e+00" purity="5.0015479326248169e-01" nType="0">
          <Node pos="l" depth="2" NCoef="0" IVar="0" Cut="1.8109291076660156e+02" cType="0" res="-9.9000000000000000e+01" rms="0.0000000000000000e+00" purity="5.2027338743209839e-01" nType="0">
            <Node pos="l" depth="3" NCoef="0" IVar="-1" Cut="0.0000000000000000e+00" cType="1" res="-9.9000000000000000e+01" rms="0.0000000000000000e+00" purity="5.6654840707778931e-01" nType="1"/>
            <Node pos="r" depth="3" NCoef="0" IVar="4" Cut="2.0352250671386719e+02" cType="1" res="-9.9000000000000000e+01" rms="0.0000000000000000e+00" purity="5.0969296693801880e-01" nType="0">
              <Node pos="l" depth="4" NCoef="0" IVar="-1" Cut="0.0000000000000000e+00" cType="1" res="-9.9000000000000000e+01" rms="0.0000000000000000e+00" purity="5.2600270509719849e-01" nType="1"/>
              <Node pos="r" depth="4" NCoef="0" IVar="-1" Cut="0.0000000000000000e+00" cType="1" res="-9.9000000000000000e+01" rms="0.0000000000000000e+00" purity="4.3299981951713562e-01" nType="-1"/>
            </Node>
          </Node>
          <Node pos="r" depth="2" NCoef="0" IVar="4" Cut="1.9231954956054688e+02" cType="1" res="-9.9000000000000000e+01" rms="0.0000000000000000e+00" purity="4.7679728269577026e-01" nType="0">
            <Node pos="l" depth="3" NCoef="0" IVar="0" Cut="6.4313323974609375e+01" cType="1" res="-9.9000000000000000e+01" rms="0.0000000000000000e+00" purity="4.9371129274368286e-01" nType="0">
              <Node pos="l" depth="4" NCoef="0" IVar="-1" Cut="0.0000000000000000e+00" cType="1" res="-9.9000000000000000e+01" rms="0.0000000000000000e+00" purity="5.3113657236099243e-01" nType="1"/>
              <Node pos="r" depth="4" NCoef="0" IVar="-1" Cut="0.0000000000000000e+00" cType="1" res="-9.9000000000000000e+01" rms="0.0000000000000000e+00" purity="4.6356409788131714e-01" nType="-1"/>
            </Node>
            <Node pos="r" depth="3" NCoef="0" IVar="-1" Cut="0.0000000000000000e+00" cType="1" res="-9.9000000000000000e+01" rms="0.0000000000000000e+00" purity="4.0463492274284363e-01" nType="-1"/>
          </Node>
        </Node>
        <Node pos="r" depth="1" NCoef="0" IVar="-1" Cut="1.9983064270019531e+02" cType="1" res="-9.9000000000000000e+01" rms="0.0000000000000000e+00" purity="4.2350378632545471e-01" nType="-1"/>
      </Node>
    </BinaryTree>
    <BinaryTree type="DecisionTree" boostWeight="1.1013995608836605e-01" itree="15">
      <Node pos="s" depth="0" NCoef="0" IVar="5" Cut="2.5431978702545166e+00" cType="0" res="-9.9000000000000000e+01" rms="0.0000000000000000e+00" purity="4.8895862698554993e-01" nType="0">
        <Node pos="l" depth="1" NCoef="0" IVar="4" Cut="1.7576806640625000e+02" cType="1" res="-9.9000000000000000e+01" rms="0.0000000000000000e+00" purity="5.2521765232086182e-01" nType="0">
          <Node pos="l" depth="2" NCoef="0" IVar="-1" Cut="1.7606105804443359e+00" cType="1" res="-9.9000000000000000e+01" rms="0.0000000000000000e+00" purity="5.3786939382553101e-01" nType="1"/>
          <Node pos="r" depth="2" NCoef="0" IVar="0" Cut="1.6016360473632812e+02" cType="0" res="-9.9000000000000000e+01" rms="0.0000000000000000e+00" purity="5.0248318910598755e-01" nType="0">
            <Node pos="l" depth="3" NCoef="0" IVar="-1" Cut="0.0000000000000000e+00" cType="1" res="-9.9000000000000000e+01" rms="0.0000000000000000e+00" purity="5.7372826337814331e-01" nType="1"/>
            <Node pos="r" depth="3" NCoef="0" IVar="-1" Cut="9.9246841430664062e+01" cType="0" res="-9.9000000000000000e+01" rms="0.0000000000000000e+00" purity="4.4106420874595642e-01" nType="-1"/>
          </Node>
        </Node>
        <Node pos="r" depth="1" NCoef="0" IVar="4" Cut="1.7286566162109375e+02" cType="1" res="-9.9000000000000000e+01" rms="0.0000000000000000e+00" purity="4.4028627872467041e-01" nType="0">
          <Node pos="l" depth="2" NCoef="0" IVar="2" Cut="4.0907638549804688e+01" cType="1" res="-9.9000000000000000e+01" rms="0.0000000000000000e+00" purity="4.6698114275932312e-01" nType="0">
            <Node pos="l" depth="3" NCoef="0" IVar="-1" Cut="0.0000000000000000e+00" cType="1" res="-9.9000000000000000e+01" rms="0.0000000000000000e+00" purity="5.0862902402877808e-01" nType="1"/>
            <Node pos="r" depth="3" NCoef="0" IVar="-1" Cut="2.1798853874206543e+00" cType="0" res="-9.9000000000000000e+01" rms="0.0000000000000000e+00" purity="4.4431614875793457e-01" nType="-1"/>
          </Node>
          <Node pos="r" depth="2" NCoef="0" IVar="-1" Cut="1.8165630102157593e+00" cType="0" res="-9.9000000000000000e+01" rms="0.0000000000000000e+00" purity="3.6242955923080444e-01" nType="-1"/>
        </Node>
      </Node>
    </BinaryTree>
    <BinaryTree type="DecisionTree" boostWeight="1.0242662884246452e-01" itree="16">
      <Node pos="s" depth="0" NCoef="0" IVar="5" Cut="2.2440016269683838e+00" cType="0" res="-9.9000000000000000e+01" rms="0.0000000000000000e+00" purity="4.7254365682601929e-01" nType="0">
        <Node pos="l" depth="1" NCoef="0" IVar="4" Cut="1.8152081298828125e+02" cType="1" res="-9.9000000000000000e+01" rms="0.0000000000000000e+00" purity="4.9326986074447632e-01" nType="0">
          <Node pos="l" depth="2" NCoef="0" IVar="1" Cut="2.0397424316406250e+02" cType="0" res="-9.9000000000000000e+01" rms="0.0000000000000000e+00" purity="5.0481420755386353e-01" nType="0">
            <Node pos="l" depth="3" NCoef="0" IVar="-1" Cut="0.0000000000000000e+00" cType="1" res="-9.9000000000000000e+01" rms="0.0000000000000000e+00" purity="5.7974779605865479e-01" nType="1"/>
            <Node pos="r" depth="3" NCoef="0" IVar="1" Cut="1.2496904754638672e+02" cType="1" res="-9.9000000000000000e+01" rms="0.0000000000000000e+00" purity="4.9544897675514221e-01" nType="0">
              <Node pos="l" depth="4" NCoef="0" IVar="-1" Cut="0.0000000000000000e+00" cType="1" res="-9.9000000000000000e+01" rms="0.0000000000000000e+00" purity="5.1451659202575684e-01" nType="1"/>
              <Node pos="r" depth="4" NCoef="0" IVar="-1" Cut="0.0000000000000000e+00" cType="1" res="-9.9000000000000000e+01" rms="0.0000000000000000e+00" purity="4.5611512660980225e-01" nType="-1"/>
            </Node>
          </Node>
          <Node pos="r" depth="2" NCoef="0" IVar="0" Cut="1.6011012268066406e+02" cType="0" res="-9.9000000000000000e+01" rms="0.0000000000000000e+00" purity="4.6730121970176697e-01" nType="0">
            <Node pos="l" depth="3" NCoef="0" IVar="-1" Cut="0.0000000000000000e+00" cType="1" res="-9.9000000000000000e+01" rms="0.0000000000000000e+00" purity="5.3520840406417847e-01" nType="1"/>
            <Node pos="r" depth="3" NCoef="0" IVar="-1" Cut="9.9194297790527344e+01" cType="0" res="-9.9000000000000000e+01" rms="0.0000000000000000e+00" purity="4.1224285960197449e-01" nType="-1"/>
          </Node>
        </Node>
        <Node pos="r" depth="1" NCoef="0" IVar="-1" Cut="2.1569305419921875e+02" cType="1" res="-9.9000000000000000e+01" rms="0.0000000000000000e+00" purity="4.2565816640853882e-01" nType="-1"/>
      </Node>
    </BinaryTree>
    <BinaryTree type="DecisionTree" boostWeight="8.7149397869549117e-02" itree="17">
      <Node pos="s" depth="0" NCoef="0" IVar="5" Cut="7.4802654981613159e-01" cType="0" res="-9.9000000000000000e+01" rms="0.0000000000000000e+00" purity="4.6983459591865540e-01" nType="0">
        <Node pos="l" depth="1" NCoef="0" IVar="4" Cut="2.2752027893066406e+02" cType="1" res="-9.9000000000000000e+01" rms="0.0000000000000000e+00" purity="4.7719243168830872e-01" nType="0">
          <Node pos="l" depth="2" NCoef="0" IVar="1" Cut="1.1759222412109375e+02" cType="1" res="-9.9000000000000000e+01" rms="0.0000000000000000e+00" purity="4.8457533121109009e-01" nType="0">
            <Node pos="l" depth="3" NCoef="0" IVar="3" Cut="1.8535770177841187e+00" cType="1" res="-9.9000000000000000e+01" rms="0.0000000000000000e+00" purity="5.0308454036712646e-01" nType="0">
              <Node pos="l" depth="4" NCoef="0" IVar="-1" Cut="0.0000000000000000e+00" cType="1" res="-9.9000000000000000e+01" rms="0.0000000000000000e+00" purity="5.3064388036727905e-01" nType="1"/>
              <Node pos="r" depth="4" NCoef="0" IVar="-1" Cut="0.0000000000000000e+00" cType="1" res="-9.9000000000000000e+01" rms="0.0000000000000000e+00" purity="4.6536257863044739e-01" nType="-1"/>
            </Node>
            <Node pos="r" depth="3" NCoef="0" IVar="-1" Cut="1.9253872632980347e+00" cType="0" res="-9.9000000000000000e+01" rms="0.0000000000000000e+00" purity="4.6723175048828125e-01" nType="-1"/>
          </Node>
          <Node pos="r" depth="2" NCoef="0" IVar="-1" Cut="1.5750239562988281e+02" cType="0" res="-9.9000000000000000e+01" rms="0.0000000000000000e+00" purity="4.3983232975006104e-01" nType="-1"/>
        </Node>
        <Node pos="r" depth="1" NCoef="0" IVar="-1" Cut="0.0000000000000000e+00" cType="1" res="-9.9000000000000000e+01" rms="0.0000000000000000e+00" purity="3.7250357866287231e-01" nType="-1"/>
      </Node>
    </BinaryTree>
    <BinaryTree type="DecisionTree" boostWeight="7.6525499742493078e-02" itree="18">
      <Node pos="s" depth="0" NCoef="0" IVar="5" Cut="1.9448086023330688e+00" cType="0" res="-9.9000000000000000e+01" rms="0.0000000000000000e+00" purity="4.8134818673133850e-01" nType="0">
        <Node pos="l" depth="1" NCoef="0" IVar="2" Cut="1.9299263000488281e+02" cType="0" res="-9.9000000000000000e+01" rms="0.0000000000000000e+00" purity="4.9504077434539795e-01" nType="0">
          <Node pos="l" depth="2" NCoef="0" IVar="-1" Cut="0.0000000000000000e+00" cType="1" res="-9.9000000000000000e+01" rms="0.0000000000000000e+00" purity="5.3866684436798096e-01" nType="1"/>
          <Node pos="r" depth="2" NCoef="0" IVar="4" Cut="2.0139842224121094e+02" cType="1" res="-9.9000000000000000e+01" rms="0.0000000000000000e+00" purity="4.9033847451210022e-01" nType="0">
            <Node pos="l" depth="3" NCoef="0" IVar="1" Cut="1.0876969146728516e+02" cType="1" res="-9.9000000000000000e+01" rms="0.0000000000000000e+00" purity="5.0041723251342773e-01" nType="0">
              <Node pos="l" depth="4" NCoef="0" IVar="-1" Cut="0.0000000000000000e+00" cType="1" res="-9.9000000000000000e+01" rms="0.0000000000000000e+00" purity="5.2239477634429932e-01" nType="1"/>
              <Node pos="r" depth="4" NCoef="0" IVar="-1" Cut="0.0000000000000000e+00" cType="1" res="-9.9000000000000000e+01" rms="0.0000000000000000e+00" purity="4.8424264788627625e-01" nType="-1"/>
            </Node>
            <Node pos="r" depth="3" NCoef="0" IVar="-1" Cut="0.0000000000000000e+00" cType="1" res="-9.9000000000000000e+01" rms="0.0000000000000000e+00" purity="4.3438655138015747e-01" nType="-1"/>
          </Node>
        </Node>
        <Node pos="r" depth="1" NCoef="0" IVar="1" Cut="1.8053306579589844e+02" cType="1" res="-9.9000000000000000e+01" rms="0.0000000000000000e+00" purity="4.3649539351463318e-01" nType="0">
          <Node pos="l" depth="2" NCoef="0" IVar="3" Cut="2.1349983215332031e+00" cType="0" res="-9.9000000000000000e+01" rms="0.0000000000000000e+00" purity="4.6777072548866272e-01" nType="0">
            <Node pos="l" depth="3" NCoef="0" IVar="-1" Cut="0.0000000000000000e+00" cType="1" res="-9.9000000000000000e+01" rms="0.0000000000000000e+00" purity="5.2012479305267334e-01" nType="1"/>
            <Node pos="r" depth="3" NCoef="0" IVar="-1" Cut="0.0000000000000000e+00" cType="1" res="-9.9000000000000000e+01" rms="0.0000000000000000e+00" purity="4.3104326725006104e-01" nType="-1"/>
          </Node>
          <Node pos="r" depth="2" NCoef="0" IVar="-1" Cut="0.0000000000000000e+00" cType="1" res="-9.9000000000000000e+01" rms="0.0000000000000000e+00" purity="3.6963734030723572e-01" nType="-1"/>
        </Node>
      </Node>
    </BinaryTree>
    <BinaryTree type="DecisionTree" boostWeight="9.0489484736720457e-02" itree="19">
      <Node pos="s" depth="0" NCoef="0" IVar="5" Cut="1.9448052644729614e+00" cType="0" res="-9.9000000000000000e+01" rms="0.0000000000000000e+00" purity="4.9049484729766846e-01" nType="0">
        <Node pos="l" depth="1" NCoef="0" IVar="3" Cut="1.9240671396255493e+00" cType="0" res="-9.9000000000000000e+01" rms="0.0000000000000000e+00" purity="5.0039231777191162e-01" nType="0">
          <Node pos="l" depth="2" NCoef="0" IVar="2" Cut="9.6494216918945312e+01" cType="0" res="-9.9000000000000000e+01" rms="0.0000000000000000e+00" purity="5.1274245977401733e-01" nType="0">
            <Node pos="l" depth="3" NCoef="0" IVar="-1" Cut="1.3338562011718750e+02" cType="0" res="-9.9000000000000000e+01" rms="0.0000000000000000e+00" purity="5.5282115936279297e-01" nType="1"/>
            <Node pos="r" depth="3" NCoef="0" IVar="0" Cut="7.6027542114257812e+01" cType="1" res="-9.9000000000000000e+01" rms="0.0000000000000000e+00" purity="4.9597612023353577e-01" nType="0">
              <Node pos="l" depth="4" NCoef="0" IVar="-1" Cut="0.0000000000000000e+00" cType="1" res="-9.9000000000000000e+01" rms="0.0000000000000000e+00" purity="5.2984803915023804e-01" nType="1"/>
              <Node pos="r" depth="4" NCoef="0" IVar="-1" Cut="0.0000000000000000e+00" cType="1" res="-9.9000000000000000e+01" rms="0.0000000000000000e+00" purity="4.4391512870788574e-01" nType="-1"/>
            </Node>
          </Node>
          <Node pos="r" depth="2" NCoef="0" IVar="1" Cut="1.0551866912841797e+02" cType="1" res="-9.9000000000000000e+01" rms="0.0000000000000000e+00" purity="4.8361554741859436e-01" nType="0">
            <Node pos="l" depth="3" NCoef="0" IVar="-1" Cut="0.0000000000000000e+00" cType="1" res="-9.9000000000000000e+01" rms="0.0000000000000000e+00" purity="5.2675354480743408e-01" nType="1"/>
            <Node pos="r" depth="3" NCoef="0" IVar="-1" Cut="2.7996640205383301e+00" cType="1" res="-9.9000000000000000e+01" rms="0.0000000000000000e+00" purity="4.3802511692047119e-01" nType="-1"/>
          </Node>
        </Node>
        <Node pos="r" depth="1" NCoef="0" IVar="4" Cut="1.7391571044921875e+02" cType="1" res="-9.9000000000000000e+01" rms="0.0000000000000000e+00" purity="4.5673611760139465e-01" nType="0">
          <Node pos="l" depth="2" NCoef="0" IVar="0" Cut="6.1423233032226562e+01" cType="1" res="-9.9000000000000000e+01" rms="0.0000000000000000e+00" purity="4.8115041851997375e-01" nType="0">
            <Node pos="l" depth="3" NCoef="0" IVar="-1" Cut="0.0000000000000000e+00" cType="1" res="-9.9000000000000000e+01" rms="0.0000000000000000e+00" purity="5.0677198171615601e-01" nType="1"/>
            <Node pos="r" depth="3" NCoef="0" IVar="-1" Cut="0.0000000000000000e+00" cType="1" res="-9.9000000000000000e+01" rms="0.0000000000000000e+00" purity="4.4375479221343994e-01" nType="-1"/>
          </Node>
          <Node pos="r" depth="2" NCoef="0" IVar="-1" Cut="0.0000000000000000e+00" cType="1" res="-9.9000000000000000e+01" rms="0.0000000000000000e+00" purity="3.8353568315505981e-01" nType="-1"/>
        </Node>
      </Node>
    </BinaryTree>
    <BinaryTree type="DecisionTree" boostWeight="6.1308576233603751e-02" itree="20">
      <Node pos="s" depth="0" NCoef="0" IVar="5" Cut="5.9840184450149536e-01" cType="0" res="-9.9000000000000000e+01" rms="0.0000000000000000e+00" purity="4.7633925080299377e-01" nType="0">
        <Node pos="l" depth="1" NCoef="0" IVar="3" Cut="1.3779264688491821e+00" cType="1" res="-9.9000000000000000e+01" rms="0.0000000000000000e+00" purity="4.8303836584091187e-01" nType="0">
          <Node pos="l" depth="2" NCoef="0" IVar="-1" Cut="0.0000000000000000e+00" cType="1" res="-9.9000000000000000e+01" rms="0.0000000000000000e+00" purity="5.2315938472747803e-01" nType="1"/>
          <Node pos="r" depth="2" NCoef="0" IVar="-1" Cut="1.9997962951660156e+02" cType="1" res="-9.9000000000000000e+01" rms="0.0000000000000000e+00" purity="4.7544589638710022e-01" nType="-1"/>
        </Node>
        <Node pos="r" depth="1" NCoef="0" IVar="-1" Cut="0.0000000000000000e+00" cType="1" res="-9.9000000000000000e+01" rms="0.0000000000000000e+00" purity="3.6416235566139221e-01" nType="-1"/>
      </Node>
    </BinaryTree>
    <BinaryTree type="DecisionTree" boostWeight="1.0662289268848824e-01" itree="21">
      <Node pos="s" depth="0" NCoef="0" IVar="0" Cut="6.9257080078125000e+01" cType="0" res="-9.9000000000000000e+01" rms="0.0000000000000000e+00" purity="4.6683526039123535e-01" nType="0">
        <Node pos="l" depth="1" NCoef="0" IVar="5" Cut="1.6455966234207153e+00" cType="0" res="-9.9000000000000000e+01" rms="0.0000000000000000e+00" purity="4.9225518107414246e-01" nType="0">
          <Node pos="l" depth="2" NCoef="0" IVar="4" Cut="2.7716113281250000e+02" cType="1" res="-9.9000000000000000e+01" rms="0.0000000000000000e+00" purity="5.0151628255844116e-01" nType="0">
            <Node pos="l" depth="3" NCoef="0" IVar="2" Cut="6.5500907897949219e+01" cType="0" res="-9.9000000000000000e+01" rms="0.0000000000000000e+00" purity="5.1026666164398193e-01" nType="0">
              <Node pos="l" depth="4" NCoef="0" IVar="-1" Cut="0.0000000000000000e+00" cType="1" res="-9.9000000000000000e+01" rms="0.0000000000000000e+00" purity="5.2980381250381470e-01" nType="1"/>
              <Node pos="r" depth="4" NCoef="0" IVar="-1" Cut="0.0000000000000000e+00" cType="1" res="-9.9000000000000000e+01" rms="0.0000000000000000e+00" purity="4.4551357626914978e-01" nType="-1"/>
            </Node>
            <Node pos="r" depth="3" NCoef="0" IVar="-1" Cut="0.0000000000000000e+00" cType="1" res="-9.9000000000000000e+01" rms="0.0000000000000000e+00" purity="4.4838738441467285e-01" nType="-1"/>
          </Node>
          <Node pos="r" depth="2" NCoef="0" IVar="-1" Cut="0.0000000000000000e+00" cType="1" res="-9.9000000000000000e+01" rms="0.0000000000000000e+00" purity="4.2045679688453674e-01" nType="-1"/>
        </Node>
        <Node pos="r" depth="1" NCoef="0" IVar="-1" Cut="2.3218400955200195e+01" cType="0" res="-9.9000000000000000e+01" rms="0.0000000000000000e+00" purity="4.3275842070579529e-01" nType="-1"/>
      </Node>
    </BinaryTree>
    <BinaryTree type="DecisionTree" boostWeight="7.0833113790101349e-02" itree="22">
      <Node pos="s" depth="0" NCoef="0" IVar="2" Cut="1.9300982666015625e+02" cType="0" res="-9.9000000000000000e+01" rms="0.0000000000000000e+00" purity="4.8268496990203857e-01" nType="0">
        <Node pos="l" depth="1" NCoef="0" IVar="-1" Cut="0.0000000000000000e+00" cType="1" res="-9.9000000000000000e+01" rms="0.0000000000000000e+00" purity="5.3696519136428833e-01" nType="1"/>
        <Node pos="r" depth="1" NCoef="0" IVar="4" Cut="2.0152012634277344e+02" cType="1" res="-9.9000000000000000e+01" rms="0.0000000000000000e+00" purity="4.7780621051788330e-01" nType="0">
          <Node pos="l" depth="2" NCoef="0" IVar="4" Cut="9.6699371337890625e+01" cType="0" res="-9.9000000000000000e+01" rms="0.0000000000000000e+00" purity="4.8894992470741272e-01" nType="0">
            <Node pos="l" depth="3" NCoef="0" IVar="2" Cut="7.3674980163574219e+01" cType="1" res="-9.9000000000000000e+01" rms="0.0000000000000000e+00" purity="5.0136393308639526e-01" nType="0">
              <Node pos="l" depth="4" NCoef="0" IVar="-1" Cut="0.0000000000000000e+00" cType="1" res="-9.9000000000000000e+01" rms="0.0000000000000000e+00" purity="5.2634447813034058e-01" nType="1"/>
              <Node pos="r" depth="4" NCoef="0" IVar="-1" Cut="0.0000000000000000e+00" cType="1" res="-9.9000000000000000e+01" rms="0.0000000000000000e+00" purity="4.8425433039665222e-01" nType="-1"/>
            </Node>
            <Node pos="r" depth="3" NCoef="0" IVar="-1" Cut="0.0000000000000000e+00" cType="1" res="-9.9000000000000000e+01" rms="0.0000000000000000e+00" purity="4.5768830180168152e-01" nType="-1"/>
          </Node>
          <Node pos="r" depth="2" NCoef="0" IVar="-1" Cut="2.5431985855102539e+00" cType="0" res="-9.9000000000000000e+01" rms="0.0000000000000000e+00" purity="4.1503268480300903e-01" nType="-1"/>
        </Node>
      </Node>
    </BinaryTree>
    <BinaryTree type="DecisionTree" boostWeight="6.7821204150002562e-02" itree="23">
      <Node pos="s" depth="0" NCoef="0" IVar="5" Cut="1.3463988304138184e+00" cType="0" res="-9.9000000000000000e+01" rms="0.0000000000000000e+00" purity="4.9685832858085632e-01" nType="0">
        <Node pos="l" depth="1" NCoef="0" IVar="4" Cut="1.9137062072753906e+02" cType="1" res="-9.9000000000000000e+01" rms="0.0000000000000000e+00" purity="5.0497120618820190e-01" nType="0">
          <Node pos="l" depth="2" NCoef="0" IVar="1" Cut="9.9776611328125000e+01" cType="1" res="-9.9000000000000000e+01" rms="0.0000000000000000e+00" purity="5.1304131746292114e-01" nType="0">
            <Node pos="l" depth="3" NCoef="0" IVar="-1" Cut="0.0000000000000000e+00" cType="1" res="-9.9000000000000000e+01" rms="0.0000000000000000e+00" purity="5.4021775722503662e-01" nType="1"/>
            <Node pos="r" depth="3" NCoef="0" IVar="3" Cut="2.7967071533203125e+00" cType="0" res="-9.9000000000000000e+01" rms="0.0000000000000000e+00" purity="4.9856138229370117e-01" nType="0">
              <Node pos="l" depth="4" NCoef="0" IVar="-1" Cut="0.0000000000000000e+00" cType="1" res="-9.9000000000000000e+01" rms="0.0000000000000000e+00" purity="5.5534541606903076e-01" nType="1"/>
              <Node pos="r" depth="4" NCoef="0" IVar="-1" Cut="0.0000000000000000e+00" cType="1" res="-9.9000000000000000e+01" rms="0.0000000000000000e+00" purity="4.8698490858078003e-01" nType="-1"/>
            </Node>
          </Node>
          <Node pos="r" depth="2" NCoef="0" IVar="5" Cut="2.7996516227722168e+00" cType="0" res="-9.9000000000000000e+01" rms="0.0000000000000000e+00" purity="4.8199599981307983e-01" nType="0">
            <Node pos="l" depth="3" NCoef="0" IVar="0" Cut="1.6046960449218750e+02" cType="0" res="-9.9000000000000000e+01" rms="0.0000000000000000e+00" purity="5.0866270065307617e-01" nType="0">
              <Node pos="l" depth="4" NCoef="0" IVar="-1" Cut="0.0000000000000000e+00" cType="1" res="-9.9000000000000000e+01" rms="0.0000000000000000e+00" purity="5.3450155258178711e-01" nType="1"/>
              <Node pos="r" depth="4" NCoef="0" IVar="-1" Cut="0.0000000000000000e+00" cType="1" res="-9.9000000000000000e+01" rms="0.0000000000000000e+00" purity="4.8053807020187378e-01" nType="-1"/>
            </Node>
            <Node pos="r" depth="3" NCoef="0" IVar="-1" Cut="0.0000000000000000e+00" cType="1" res="-9.9000000000000000e+01" rms="0.0000000000000000e+00" purity="4.4163694977760315e-01" nType="-1"/>
          </Node>
        </Node>
        <Node pos="r" depth="1" NCoef="0" IVar="-1" Cut="6.4114046096801758e-01" cType="0" res="-9.9000000000000000e+01" rms="0.0000000000000000e+00" purity="4.4331187009811401e-01" nType="-1"/>
      </Node>
    </BinaryTree>
    <BinaryTree type="DecisionTree" boostWeight="8.8078025111443442e-02" itree="24">
      <Node pos="s" depth="0" NCoef="0" IVar="3" Cut="1.7597553730010986e+00" cType="0" res="-9.9000000000000000e+01" rms="0.0000000000000000e+00" purity="4.8039469122886658e-01" nType="0">
        <Node pos="l" depth="1" NCoef="0" IVar="1" Cut="2.7281436157226562e+02" cType="1" res="-9.9000000000000000e+01" rms="0.0000000000000000e+00" purity="4.9647164344787598e-01" nType="0">
          <Node pos="l" depth="2" NCoef="0" IVar="2" Cut="1.1009207916259766e+02" cType="0" res="-9.9000000000000000e+01" rms="0.0000000000000000e+00" purity="5.0723254680633545e-01" nType="0">
            <Node pos="l" depth="3" NCoef="0" IVar="-1" Cut="0.0000000000000000e+00" cType="1" res="-9.9000000000000000e+01" rms="0.0000000000000000e+00" purity="5.6032288074493408e-01" nType="1"/>
            <Node pos="r" depth="3" NCoef="0" IVar="0" Cut="1.1848300170898438e+02" cType="1" res="-9.9000000000000000e+01" rms="0.0000000000000000e+00" purity="4.9867755174636841e-01" nType="0">
              <Node pos="l" depth="4" NCoef="0" IVar="-1" Cut="0.0000000000000000e+00" cType="1" res="-9.9000000000000000e+01" rms="0.0000000000000000e+00" purity="5.1804858446121216e-01" nType="1"/>
              <Node pos="r" depth="4" NCoef="0" IVar="-1" Cut="0.0000000000000000e+00" cType="1" res="-9.9000000000000000e+01" rms="0.0000000000000000e+00" purity="3.7201127409934998e-01" nType="-1"/>
            </Node>
          </Node>
          <Node pos="r" depth="2" NCoef="0" IVar="2" Cut="7.4645309448242188e+01" cType="0" res="-9.9000000000000000e+01" rms="0.0000000000000000e+00" purity="4.5989039540290833e-01" nType="0">
            <Node pos="l" depth="3" NCoef="0" IVar="3" Cut="2.5052628517150879e+00" cType="0" res="-9.9000000000000000e+01" rms="0.0000000000000000e+00" purity="4.9065193533897400e-01" nType="0">
              <Node pos="l" depth="4" NCoef="0" IVar="-1" Cut="0.0000000000000000e+00" cType="1" res="-9.9000000000000000e+01" rms="0.0000000000000000e+00" purity="5.1521730422973633e-01" nType="1"/>
              <Node pos="r" depth="4" NCoef="0" IVar="-1" Cut="0.0000000000000000e+00" cType="1" res="-9.9000000000000000e+01" rms="0.0000000000000000e+00" purity="4.6385285258293152e-01" nType="-1"/>
            </Node>
            <Node pos="r" depth="3" NCoef="0" IVar="-1" Cut="0.0000000000000000e+00" cType="1" res="-9.9000000000000000e+01" rms="0.0000000000000000e+00" purity="3.9562955498695374e-01" nType="-1"/>
          </Node>
        </Node>
        <Node pos="r" depth="1" NCoef="0" IVar="-1" Cut="8.9735115051269531e+01" cType="0" res="-9.9000000000000000e+01" rms="0.0000000000000000e+00" purity="4.4751891493797302e-01" nType="-1"/>
      </Node>
    </BinaryTree>
    <BinaryTree type="DecisionTree" boostWeight="5.8363417435717248e-02" itree="25">
      <Node pos="s" depth="0" NCoef="0" IVar="5" Cut="8.9761823415756226e-01" cType="0" res="-9.9000000000000000e+01" rms="0.0000000000000000e+00" purity="4.7669270634651184e-01" nType="0">
        <Node pos="l" depth="1" NCoef="0" IVar="5" Cut="3.0347354412078857e+00" cType="0" res="-9.9000000000000000e+01" rms="0.0000000000000000e+00" purity="4.8221582174301147e-01" nType="0">
          <Node pos="l" depth="2" NCoef="0" IVar="-1" Cut="3.0907080173492432e+00" cType="1" res="-9.9000000000000000e+01" rms="0.0000000000000000e+00" purity="5.1413112878799438e-01" nType="1"/>
          <Node pos="r" depth="2" NCoef="0" IVar="3" Cut="1.7483417987823486e+00" cType="0" res="-9.9000000000000000e+01" rms="0.0000000000000000e+00" purity="4.7582858800888062e-01" nType="0">
            <Node pos="l" depth="3" NCoef="0" IVar="-1" Cut="1.3309605407714844e+02" cType="1" res="-9.9000000000000000e+01" rms="0.0000000000000000e+00" purity="4.8861426115036011e-01" nType="-1"/>
            <Node pos="r" depth="3" NCoef="0" IVar="5" Cut="2.5258960723876953e+00" cType="1" res="-9.9000000000000000e+01" rms="0.0000000000000000e+00" purity="4.4676291942596436e-01" nType="0">
              <Node pos="l" depth="4" NCoef="0" IVar="-1" Cut="0.0000000000000000e+00" cType="1" res="-9.9000000000000000e+01" rms="0.0000000000000000e+00" purity="5.1051622629165649e-01" nType="1"/>
              <Node pos="r" depth="4" NCoef="0" IVar="-1" Cut="0.0000000000000000e+00" cType="1" res="-9.9000000000000000e+01" rms="0.0000000000000000e+00" purity="4.1820651292800903e-01" nType="-1"/>
            </Node>
          </Node>
        </Node>
        <Node pos="r" depth="1" NCoef="0" IVar="-1" Cut="0.0000000000000000e+00" cType="1" res="-9.9000000000000000e+01" rms="0.0000000000000000e+00" purity="4.1557836532592773e-01" nType="-1"/>
      </Node>
    </BinaryTree>
    <BinaryTree type="DecisionTree" boostWeight="1.0857625735505184e-01" itree="26">
      <Node pos="s" depth="0" NCoef="0" IVar="3" Cut="2.1316275596618652e+00" cType="1" res="-9.9000000000000000e+01" rms="0.0000000000000000e+00" purity="4.9179935455322266e-01" nType="0">
        <Node pos="l" depth="1" NCoef="0" IVar="1" Cut="1.5407305908203125e+02" cType="1" res="-9.9000000000000000e+01" rms="0.0000000000000000e+00" purity="5.0580567121505737e-01" nType="0">
          <Node pos="l" depth="2" NCoef="0" IVar="1" Cut="1.2245185089111328e+02" cType="1" res="-9.9000000000000000e+01" rms="0.0000000000000000e+00" purity="5.2915650606155396e-01" nType="0">
            <Node pos="l" depth="3" NCoef="0" IVar="-1" Cut="9.3540611267089844e+01" cType="0" res="-9.9000000000000000e+01" rms="0.0000000000000000e+00" purity="5.4344707727432251e-01" nType="1"/>
            <Node pos="r" depth="3" NCoef="0" IVar="-1" Cut="0.0000000000000000e+00" cType="1" res="-9.9000000000000000e+01" rms="0.0000000000000000e+00" purity="4.7078958153724670e-01" nType="-1"/>
          </Node>
          <Node pos="r" depth="2" NCoef="0" IVar="3" Cut="1.9010409116744995e+00" cType="0" res="-9.9000000000000000e+01" rms="0.0000000000000000e+00" purity="4.2076823115348816e-01" nType="0">
            <Node pos="l" depth="3" NCoef="0" IVar="-1" Cut="0.0000000000000000e+00" cType="1" res="-9.9000000000000000e+01" rms="0.0000000000000000e+00" purity="5.2898019552230835e-01" nType="1"/>
            <Node pos="r" depth="3" NCoef="0" IVar="-1" Cut="0.0000000000000000e+00" cType="1" res="-9.9000000000000000e+01" rms="0.0000000000000000e+00" purity="3.1875884532928467e-01" nType="-1"/>
          </Node>
        </Node>
        <Node pos="r" depth="1" NCoef="0" IVar="2" Cut="6.8376091003417969e+01" cType="0" res="-9.9000000000000000e+01" rms="0.0000000000000000e+00" purity="4.7667866945266724e-01" nType="0">
          <Node pos="l" depth="2" NCoef="0" IVar="5" Cut="2.3935945034027100e+00" cType="0" res="-9.9000000000000000e+01" rms="0.0000000000000000e+00" purity="5.0190830230712891e-01" nType="0">
            <Node pos="l" depth="3" NCoef="0" IVar="-1" Cut="2.7836862182617188e+02" cType="1" res="-9.9000000000000000e+01" rms="0.0000000000000000e+00" purity="5.2152013778686523e-01" nType="1"/>
            <Node pos="r" depth="3" NCoef="0" IVar="-1" Cut="0.0000000000000000e+00" cType="1" res="-9.9000000000000000e+01" rms="0.0000000000000000e+00" purity="4.5196783542633057e-01" nType="-1"/>
          </Node>
          <Node pos="r" depth="2" NCoef="0" IVar="0" Cut="5.4050148010253906e+01" cType="1" res="-9.9000000000000000e+01" rms="0.0000000000000000e+00" purity="4.5773714780807495e-01" nType="0">
            <Node pos="l" depth="3" NCoef="0" IVar="3" Cut="2.5359301567077637e+00" cType="1" res="-9.9000000000000000e+01" rms="0.0000000000000000e+00" purity="5.0033336877822876e-01" nType="0">
              <Node pos="l" depth="4" NCoef="0" IVar="-1" Cut="0.0000000000000000e+00" cType="1" res="-9.9000000000000000e+01" rms="0.0000000000000000e+00" purity="5.5235683917999268e-01" nType="1"/>
              <Node pos="r" depth="4" NCoef="0" IVar="-1" Cut="0.0000000000000000e+00" cType="1" res="-9.9000000000000000e+01" rms="0.0000000000000000e+00" purity="4.3121138215065002e-01" nType="-1"/>
            </Node>
            <Node pos="r" depth="3" NCoef="0" IVar="-1" Cut="4.5606624603271484e+01" cType="0" res="-9.9000000000000000e+01" rms="0.0000000000000000e+00" purity="4.1793632507324219e-01" nType="-1"/>
          </Node>
        </Node>
      </Node>
    </BinaryTree>
    <BinaryTree type="DecisionTree" boostWeight="7.7641391279316269e-02" itree="27">
      <Node pos="s" depth="0" NCoef="0" IVar="5" Cut="1.1968270540237427e+00" cType="0" res="-9.9000000000000000e+01" rms="0.0000000000000000e+00" purity="4.7907939553260803e-01" nType="0">
        <Node pos="l" depth="1" NCoef="0" IVar="2" Cut="1.7849958801269531e+02" cType="0" res="-9.9000000000000000e+01" rms="0.0000000000000000e+00" purity="4.8466745018959045e-01" nType="0">
          <Node pos="l" depth="2" NCoef="0" IVar="-1" Cut="0.0000000000000000e+00" cType="1" res="-9.9000000000000000e+01" rms="0.0000000000000000e+00" purity="5.2277839183807373e-01" nType="1"/>
          <Node pos="r" depth="2" NCoef="0" IVar="2" Cut="6.8041793823242188e+01" cType="1" res="-9.9000000000000000e+01" rms="0.0000000000000000e+00" purity="4.8012986779212952e-01" nType="0">
            <Node pos="l" depth="3" NCoef="0" IVar="2" Cut="4.8620685577392578e+01" cType="0" res="-9.9000000000000000e+01" rms="0.0000000000000000e+00" purity="4.9905249476432800e-01" nType="0">
              <Node pos="l" depth="4" NCoef="0" IVar="-1" Cut="0.0000000000000000e+00" cType="1" res="-9.9000000000000000e+01" rms="0.0000000000000000e+00" purity="5.5177503824234009e-01" nType="1"/>
              <Node pos="r" depth="4" NCoef="0" IVar="-1" Cut="0.0000000000000000e+00" cType="1" res="-9.9000000000000000e+01" rms="0.0000000000000000e+00" purity="4.6748694777488708e-01" nType="-1"/>
            </Node>
            <Node pos="r" depth="3" NCoef="0" IVar="-1" Cut="7.7513038635253906e+01" cType="0" res="-9.9000000000000000e+01" rms="0.0000000000000000e+00" purity="4.6532821655273438e-01" nType="-1"/>
          </Node>
        </Node>
        <Node pos="r" depth="1" NCoef="0" IVar="-1" Cut="6.2691920995712280e-01" cType="0" res="-9.9000000000000000e+01" rms="0.0000000000000000e+00" purity="4.3450075387954712e-01" nType="-1"/>
      </Node>
    </BinaryTree>
    <BinaryTree type="DecisionTree" boostWeight="6.2494906195358690e-02" itree="28">
      <Node pos="s" depth="0" NCoef="0" IVar="4" Cut="2.0102827453613281e+02" cType="1" res="-9.9000000000000000e+01" rms="0.0000000000000000e+00" purity="4.8732972145080566e-01" nType="0">
        <Node pos="l" depth="1" NCoef="0" IVar="1" Cut="1.0627945709228516e+02" cType="1" res="-9.9000000000000000e+01" rms="0.0000000000000000e+00" purity="4.9947983026504517e-01" nType="0">
          <Node pos="l" depth="2" NCoef="0" IVar="-1" Cut="8.3929084777832031e+01" cType="1" res="-9.9000000000000000e+01" rms="0.0000000000000000e+00" purity="5.2078098058700562e-01" nType="1"/>
          <Node pos="r" depth="2" NCoef="0" IVar="5" Cut="2.8423948287963867e+00" cType="1" res="-9.9000000000000000e+01" rms="0.0000000000000000e+00" purity="4.8515278100967407e-01" nType="0">
            <Node pos="l" depth="3" NCoef="0" IVar="4" Cut="1.6388304138183594e+02" cType="1" res="-9.9000000000000000e+01" rms="0.0000000000000000e+00" purity="4.9818772077560425e-01" nType="0">
              <Node pos="l" depth="4" NCoef="0" IVar="-1" Cut="0.0000000000000000e+00" cType="1" res="-9.9000000000000000e+01" rms="0.0000000000000000e+00" purity="5.1193273067474365e-01" nType="1"/>
              <Node pos="r" depth="4" NCoef="0" IVar="-1" Cut="0.0000000000000000e+00" cType="1" res="-9.9000000000000000e+01" rms="0.0000000000000000e+00" purity="4.4719129800796509e-01" nType="-1"/>
            </Node>
            <Node pos="r" depth="3" NCoef="0" IVar="-1" Cut="8.7729736328125000e+01" cType="0" res="-9.9000000000000000e+01" rms="0.0000000000000000e+00" purity="4.6111151576042175e-01" nType="-1"/>
          </Node>
        </Node>
        <Node pos="r" depth="1" NCoef="0" IVar="-1" Cut="1.3753317260742188e+02" cType="0" res="-9.9000000000000000e+01" rms="0.0000000000000000e+00" purity="4.4611427187919617e-01" nType="-1"/>
      </Node>
    </BinaryTree>
    <BinaryTree type="DecisionTree" boostWeight="8.8623380726862100e-02" itree="29">
      <Node pos="s" depth="0" NCoef="0" IVar="3" Cut="1.7645157575607300e+00" cType="0" res="-9.9000000000000000e+01" rms="0.0000000000000000e+00" purity="4.8054596781730652e-01" nType="0">
        <Node pos="l" depth="1" NCoef="0" IVar="0" Cut="6.9189186096191406e+01" cType="1" res="-9.9000000000000000e+01" rms="0.0000000000000000e+00" purity="4.9041062593460083e-01" nType="0">
          <Node pos="l" depth="2" NCoef="0" IVar="4" Cut="1.5336372375488281e+02" cType="1" res="-9.9000000000000000e+01" rms="0.0000000000000000e+00" purity="5.0558131933212280e-01" nType="0">
            <Node pos="l" depth="3" NCoef="0" IVar="3" Cut="2.4758553504943848e+00" cType="1" res="-9.9000000000000000e+01" rms="0.0000000000000000e+00" purity="5.4047274589538574e-01" nType="0">
              <Node pos="l" depth="4" NCoef="0" IVar="-1" Cut="0.0000000000000000e+00" cType="1" res="-9.9000000000000000e+01" rms="0.0000000000000000e+00" purity="5.6846338510513306e-01" nType="1"/>
              <Node pos="r" depth="4" NCoef="0" IVar="-1" Cut="0.0000000000000000e+00" cType="1" res="-9.9000000000000000e+01" rms="0.0000000000000000e+00" purity="4.8615866899490356e-01" nType="-1"/>
            </Node>
            <Node pos="r" depth="3" NCoef="0" IVar="-1" Cut="0.0000000000000000e+00" cType="1" res="-9.9000000000000000e+01" rms="0.0000000000000000e+00" purity="4.1117191314697266e-01" nType="-1"/>
          </Node>
          <Node pos="r" depth="2" NCoef="0" IVar="2" Cut="9.6494216918945312e+01" cType="0" res="-9.9000000000000000e+01" rms="0.0000000000000000e+00" purity="4.7735819220542908e-01" nType="0">
            <Node pos="l" depth="3" NCoef="0" IVar="0" Cut="1.3496209716796875e+02" cType="0" res="-9.9000000000000000e+01" rms="0.0000000000000000e+00" purity="5.1075565814971924e-01" nType="0">
              <Node pos="l" depth="4" NCoef="0" IVar="-1" Cut="0.0000000000000000e+00" cType="1" res="-9.9000000000000000e+01" rms="0.0000000000000000e+00" purity="5.2393466234207153e-01" nType="1"/>
              <Node pos="r" depth="4" NCoef="0" IVar="-1" Cut="0.0000000000000000e+00" cType="1" res="-9.9000000000000000e+01" rms="0.0000000000000000e+00" purity="4.9402841925621033e-01" nType="-1"/>
            </Node>
            <Node pos="r" depth="3" NCoef="0" IVar="-1" Cut="1.2709597015380859e+02" cType="1" res="-9.9000000000000000e+01" rms="0.0000000000000000e+00" purity="4.5234063267707825e-01" nType="-1"/>
          </Node>
        </Node>
        <Node pos="r" depth="1" NCoef="0" IVar="-1" Cut="1.3998275756835938e+02" cType="1" res="-9.9000000000000000e+01" rms="0.0000000000000000e+00" purity="4.6009433269500732e-01" nType="-1"/>
      </Node>
    </BinaryTree>
    <BinaryTree type="DecisionTree" boostWeight="6.6730224596363893e-02" itree="30">
      <Node pos="s" depth="0" NCoef="0" IVar="4" Cut="2.2748327636718750e+02" cType="1" res="-9.9000000000000000e+01" rms="0.0000000000000000e+00" purity="4.7698673605918884e-01" nType="0">
        <Node pos="l" depth="1" NCoef="0" IVar="2" Cut="1.2944270324707031e+02" cType="0" res="-9.9000000000000000e+01" rms="0.0000000000000000e+00" purity="4.8218411207199097e-01" nType="0">
          <Node pos="l" depth="2" NCoef="0" IVar="-1" Cut="0.0000000000000000e+00" cType="1" res="-9.9000000000000000e+01" rms="0.0000000000000000e+00" purity="5.4829108715057373e-01" nType="1"/>
          <Node pos="r" depth="2" NCoef="0" IVar="-1" Cut="2.8423917293548584e+00" cType="1" res="-9.9000000000000000e+01" rms="0.0000000000000000e+00" purity="4.7241833806037903e-01" nType="-1"/>
        </Node>
        <Node pos="r" depth="1" NCoef="0" IVar="-1" Cut="1.9248280525207520e+00" cType="0" res="-9.9000000000000000e+01" rms="0.0000000000000000e+00" purity="4.5183545351028442e-01" nType="-1"/>
      </Node>
    </BinaryTree>
    <BinaryTree type="DecisionTree" boostWeight="9.8411893456279168e-02" itree="31">
      <Node pos="s" depth="0" NCoef="0" IVar="3" Cut="2.1316275596618652e+00" cType="1" res="-9.9000000000000000e+01" rms="0.0000000000000000e+00" purity="5.0390440225601196e-01" nType="0">
        <Node pos="l" depth="1" NCoef="0" IVar="1" Cut="1.5088891601562500e+02" cType="1" res="-9.9000000000000000e+01" rms="0.0000000000000000e+00" purity="5.2408307790756226e-01" nType="0">
          <Node pos="l" depth="2" NCoef="0" IVar="-1" Cut="1.4105697631835938e+02" cType="0" res="-9.9000000000000000e+01" rms="0.0000000000000000e+00" purity="5.5287528038024902e-01" nType="1"/>
          <Node pos="r" depth="2" NCoef="0" IVar="3" Cut="1.8969630002975464e+00" cType="0" res="-9.9000000000000000e+01" rms="0.0000000000000000e+00" purity="4.2610138654708862e-01" nType="0">
            <Node pos="l" depth="3" NCoef="0" IVar="-1" Cut="0.0000000000000000e+00" cType="1" res="-9.9000000000000000e+01" rms="0.0000000000000000e+00" purity="5.0913858413696289e-01" nType="1"/>
            <Node pos="r" depth="3" NCoef="0" IVar="-1" Cut="0.0000000000000000e+00" cType="1" res="-9.9000000000000000e+01" rms="0.0000000000000000e+00" purity="3.4295916557312012e-01" nType="-1"/>
          </Node>
        </Node>
        <Node pos="r" depth="1" NCoef="0" IVar="4" Cut="2.7621218872070312e+02" cType="1" res="-9.9000000000000000e+01" rms="0.0000000000000000e+00" purity="4.8332792520523071e-01" nType="0">
          <Node pos="l" depth="2" NCoef="0" IVar="2" Cut="9.0716705322265625e+01" cType="0" res="-9.9000000000000000e+01" rms="0.0000000000000000e+00" purity="4.9329847097396851e-01" nType="0">
            <Node pos="l" depth="3" NCoef="0" IVar="-1" Cut="0.0000000000000000e+00" cType="1" res="-9.9000000000000000e+01" rms="0.0000000000000000e+00" purity="5.5582243204116821e-01" nType="1"/>
            <Node pos="r" depth="3" NCoef="0" IVar="-1" Cut="1.6550631713867188e+02" cType="1" res="-9.9000000000000000e+01" rms="0.0000000000000000e+00" purity="4.7575667500495911e-01" nType="-1"/>
          </Node>
          <Node pos="r" depth="2" NCoef="0" IVar="-1" Cut="0.0000000000000000e+00" cType="1" res="-9.9000000000000000e+01" rms="0.0000000000000000e+00" purity="4.1130962967872620e-01" nType="-1"/>
        </Node>
      </Node>
    </BinaryTree>
    <BinaryTree type="DecisionTree" boostWeight="1.0039987658311009e-01" itree="32">
      <Node pos="s" depth="0" NCoef="0" IVar="2" Cut="9.6494216918945312e+01" cType="1" res="-9.9000000000000000e+01" rms="0.0000000000000000e+00" purity="5.0053727626800537e-01" nType="0">
        <Node pos="l" depth="1" NCoef="0" IVar="0" Cut="1.2251640319824219e+02" cType="1" res="-9.9000000000000000e+01" rms="0.0000000000000000e+00" purity="5.0848865509033203e-01" nType="0">
          <Node pos="l" depth="2" NCoef="0" IVar="0" Cut="2.9266048431396484e+01" cType="0" res="-9.9000000000000000e+01" rms="0.0000000000000000e+00" purity="5.2144265174865723e-01" nType="0">
            <Node pos="l" depth="3" NCoef="0" IVar="5" Cut="1.6455980539321899e+00" cType="0" res="-9.9000000000000000e+01" rms="0.0000000000000000e+00" purity="5.3260397911071777e-01" nType="0">
              <Node pos="l" depth="4" NCoef="0" IVar="-1" Cut="0.0000000000000000e+00" cType="1" res="-9.9000000000000000e+01" rms="0.0000000000000000e+00" purity="5.4843932390213013e-01" nType="1"/>
              <Node pos="r" depth="4" NCoef="0" IVar="-1" Cut="0.0000000000000000e+00" cType="1" res="-9.9000000000000000e+01" rms="0.0000000000000000e+00" purity="4.6314215660095215e-01" nType="-1"/>
            </Node>
            <Node pos="r" depth="3" NCoef="0" IVar="-1" Cut="0.0000000000000000e+00" cType="1" res="-9.9000000000000000e+01" rms="0.0000000000000000e+00" purity="4.7598776221275330e-01" nType="-1"/>
          </Node>
          <Node pos="r" depth="2" NCoef="0" IVar="-1" Cut="0.0000000000000000e+00" cType="1" res="-9.9000000000000000e+01" rms="0.0000000000000000e+00" purity="4.1818237304687500e-01" nType="-1"/>
        </Node>
        <Node pos="r" depth="1" NCoef="0" IVar="0" Cut="8.0249710083007812e+01" cType="0" res="-9.9000000000000000e+01" rms="0.0000000000000000e+00" purity="4.8759537935256958e-01" nType="0">
          <Node pos="l" depth="2" NCoef="0" IVar="5" Cut="2.9919905662536621e+00" cType="0" res="-9.9000000000000000e+01" rms="0.0000000000000000e+00" purity="5.1827996969223022e-01" nType="0">
            <Node pos="l" depth="3" NCoef="0" IVar="-1" Cut="0.0000000000000000e+00" cType="1" res="-9.9000000000000000e+01" rms="0.0000000000000000e+00" purity="5.6252878904342651e-01" nType="1"/>
            <Node pos="r" depth="3" NCoef="0" IVar="0" Cut="1.4549569702148438e+02" cType="1" res="-9.9000000000000000e+01" rms="0.0000000000000000e+00" purity="4.9373307824134827e-01" nType="0">
              <Node pos="l" depth="4" NCoef="0" IVar="-1" Cut="0.0000000000000000e+00" cType="1" res="-9.9000000000000000e+01" rms="0.0000000000000000e+00" purity="5.1422053575515747e-01" nType="1"/>
              <Node pos="r" depth="4" NCoef="0" IVar="-1" Cut="0.0000000000000000e+00" cType="1" res="-9.9000000000000000e+01" rms="0.0000000000000000e+00" purity="4.7376585006713867e-01" nType="-1"/>
            </Node>
          </Node>
          <Node pos="r" depth="2" NCoef="0" IVar="-1" Cut="0.0000000000000000e+00" cType="1" res="-9.9000000000000000e+01" rms="0.0000000000000000e+00" purity="3.6772602796554565e-01" nType="-1"/>
        </Node>
      </Node>
    </BinaryTree>
    <BinaryTree type="DecisionTree" boostWeight="7.7775718877371613e-02" itree="33">
      <Node pos="s" depth="0" NCoef="0" IVar="4" Cut="1.9189947509765625e+02" cType="1" res="-9.9000000000000000e+01" rms="0.0000000000000000e+00" purity="4.8542439937591553e-01" nType="0">
        <Node pos="l" depth="1" NCoef="0" IVar="4" Cut="9.3492065429687500e+01" cType="0" res="-9.9000000000000000e+01" rms="0.0000000000000000e+00" purity="4.9386352300643921e-01" nType="0">
          <Node pos="l" depth="2" NCoef="0" IVar="2" Cut="4.5684360504150391e+01" cType="1" res="-9.9000000000000000e+01" rms="0.0000000000000000e+00" purity="5.0835067033767700e-01" nType="0">
            <Node pos="l" depth="3" NCoef="0" IVar="-1" Cut="0.0000000000000000e+00" cType="1" res="-9.9000000000000000e+01" rms="0.0000000000000000e+00" purity="5.5017274618148804e-01" nType="1"/>
            <Node pos="r" depth="3" NCoef="0" IVar="0" Cut="5.0815147399902344e+01" cType="0" res="-9.9000000000000000e+01" rms="0.0000000000000000e+00" purity="4.9865090847015381e-01" nType="0">
              <Node pos="l" depth="4" NCoef="0" IVar="-1" Cut="0.0000000000000000e+00" cType="1" res="-9.9000000000000000e+01" rms="0.0000000000000000e+00" purity="5.1426810026168823e-01" nType="1"/>
              <Node pos="r" depth="4" NCoef="0" IVar="-1" Cut="0.0000000000000000e+00" cType="1" res="-9.9000000000000000e+01" rms="0.0000000000000000e+00" purity="4.3635007739067078e-01" nType="-1"/>
            </Node>
          </Node>
          <Node pos="r" depth="2" NCoef="0" IVar="-1" Cut="0.0000000000000000e+00" cType="1" res="-9.9000000000000000e+01" rms="0.0000000000000000e+00" purity="4.5193541049957275e-01" nType="-1"/>
        </Node>
        <Node pos="r" depth="1" NCoef="0" IVar="2" Cut="1.9299946594238281e+02" cType="0" res="-9.9000000000000000e+01" rms="0.0000000000000000e+00" purity="4.6024766564369202e-01" nType="0">
          <Node pos="l" depth="2" NCoef="0" IVar="-1" Cut="0.0000000000000000e+00" cType="1" res="-9.9000000000000000e+01" rms="0.0000000000000000e+00" purity="5.2057874202728271e-01" nType="1"/>
          <Node pos="r" depth="2" NCoef="0" IVar="-1" Cut="2.6927957534790039e+00" cType="0" res="-9.9000000000000000e+01" rms="0.0000000000000000e+00" purity="4.3053880333900452e-01" nType="-1"/>
        </Node>
      </Node>
    </BinaryTree>
    <BinaryTree type="DecisionTree" boostWeight="6.9941418815180956e-02" itree="34">
      <Node pos="s" depth="0" NCoef="0" IVar="4" Cut="2.0099127197265625e+02" cType="1" res="-9.9000000000000000e+01" rms="0.0000000000000000e+00" purity="4.9223396182060242e-01" nType="0">
        <Node pos="l" depth="1" NCoef="0" IVar="3" Cut="2.3142313957214355e+00" cType="0" res="-9.9000000000000000e+01" rms="0.0000000000000000e+00" purity="5.0181186199188232e-01" nType="0">
          <Node pos="l" depth="2" NCoef="0" IVar="2" Cut="7.5235801696777344e+01" cType="0" res="-9.9000000000000000e+01" rms="0.0000000000000000e+00" purity="5.2184069156646729e-01" nType="0">
            <Node pos="l" depth="3" NCoef="0" IVar="-1" Cut="0.0000000000000000e+00" cType="1" res="-9.9000000000000000e+01" rms="0.0000000000000000e+00" purity="5.5882638692855835e-01" nType="1"/>
            <Node pos="r" depth="3" NCoef="0" IVar="0" Cut="6.3659393310546875e+01" cType="1" res="-9.9000000000000000e+01" rms="0.0000000000000000e+00" purity="5.0755637884140015e-01" nType="0">
              <Node pos="l" depth="4" NCoef="0" IVar="-1" Cut="0.0000000000000000e+00" cType="1" res="-9.9000000000000000e+01" rms="0.0000000000000000e+00" purity="5.2526807785034180e-01" nType="1"/>
              <Node pos="r" depth="4" NCoef="0" IVar="-1" Cut="0.0000000000000000e+00" cType="1" res="-9.9000000000000000e+01" rms="0.0000000000000000e+00" purity="4.8174440860748291e-01" nType="-1"/>
            </Node>
          </Node>
          <Node pos="r" depth="2" NCoef="0" IVar="1" Cut="1.3768934631347656e+02" cType="1" res="-9.9000000000000000e+01" rms="0.0000000000000000e+00" purity="4.9248254299163818e-01" nType="0">
            <Node pos="l" depth="3" NCoef="0" IVar="3" Cut="1.8686723709106445e+00" cType="1" res="-9.9000000000000000e+01" rms="0.0000000000000000e+00" purity="5.0498431921005249e-01" nType="0">
              <Node pos="l" depth="4" NCoef="0" IVar="-1" Cut="0.0000000000000000e+00" cType="1" res="-9.9000000000000000e+01" rms="0.0000000000000000e+00" purity="5.2608036994934082e-01" nType="1"/>
              <Node pos="r" depth="4" NCoef="0" IVar="-1" Cut="0.0000000000000000e+00" cType="1" res="-9.9000000000000000e+01" rms="0.0000000000000000e+00" purity="4.7413465380668640e-01" nType="-1"/>
            </Node>
            <Node pos="r" depth="3" NCoef="0" IVar="-1" Cut="8.5823867797851562e+01" cType="1" res="-9.9000000000000000e+01" rms="0.0000000000000000e+00" purity="4.4628682732582092e-01" nType="-1"/>
          </Node>
        </Node>
        <Node pos="r" depth="1" NCoef="0" IVar="0" Cut="1.6011859130859375e+02" cType="0" res="-9.9000000000000000e+01" rms="0.0000000000000000e+00" purity="4.5912078022956848e-01" nType="0">
          <Node pos="l" depth="2" NCoef="0" IVar="-1" Cut="0.0000000000000000e+00" cType="1" res="-9.9000000000000000e+01" rms="0.0000000000000000e+00" purity="5.0444197654724121e-01" nType="1"/>
          <Node pos="r" depth="2" NCoef="0" IVar="-1" Cut="2.1480212211608887e+00" cType="0" res="-9.9000000000000000e+01" rms="0.0000000000000000e+00" purity="4.2621779441833496e-01" nType="-1"/>
        </Node>
      </Node>
    </BinaryTree>
    <BinaryTree type="DecisionTree" boostWeight="5.9025018905192614e-02" itree="35">
      <Node pos="s" depth="0" NCoef="0" IVar="5" Cut="1.0472007989883423e+00" cType="0" res="-9.9000000000000000e+01" rms="0.0000000000000000e+00" purity="4.8480442166328430e-01" nType="0">
        <Node pos="l" depth="1" NCoef="0" IVar="3" Cut="3.0607216358184814e+00" cType="0" res="-9.9000000000000000e+01" rms="0.0000000000000000e+00" purity="4.8804068565368652e-01" nType="0">
          <Node pos="l" depth="2" NCoef="0" IVar="-1" Cut="0.0000000000000000e+00" cType="1" res="-9.9000000000000000e+01" rms="0.0000000000000000e+00" purity="5.4282152652740479e-01" nType="1"/>
          <Node pos="r" depth="2" NCoef="0" IVar="5" Cut="2.5432000160217285e+00" cType="1" res="-9.9000000000000000e+01" rms="0.0000000000000000e+00" purity="4.8470488190650940e-01" nType="0">
            <Node pos="l" depth="3" NCoef="0" IVar="1" Cut="2.1848222351074219e+02" cType="1" res="-9.9000000000000000e+01" rms="0.0000000000000000e+00" purity="5.0316774845123291e-01" nType="0">
              <Node pos="l" depth="4" NCoef="0" IVar="-1" Cut="0.0000000000000000e+00" cType="1" res="-9.9000000000000000e+01" rms="0.0000000000000000e+00" purity="5.2098530530929565e-01" nType="1"/>
              <Node pos="r" depth="4" NCoef="0" IVar="-1" Cut="0.0000000000000000e+00" cType="1" res="-9.9000000000000000e+01" rms="0.0000000000000000e+00" purity="4.3309393525123596e-01" nType="-1"/>
            </Node>
            <Node pos="r" depth="3" NCoef="0" IVar="-1" Cut="2.9421291351318359e+00" cType="0" res="-9.9000000000000000e+01" rms="0.0000000000000000e+00" purity="4.7485542297363281e-01" nType="-1"/>
          </Node>
        </Node>
        <Node pos="r" depth="1" NCoef="0" IVar="-1" Cut="0.0000000000000000e+00" cType="1" res="-9.9000000000000000e+01" rms="0.0000000000000000e+00" purity="4.5602184534072876e-01" nType="-1"/>
      </Node>
    </BinaryTree>
    <BinaryTree type="DecisionTree" boostWeight="8.8641417684644883e-02" itree="36">
      <Node pos="s" depth="0" NCoef="0" IVar="5" Cut="2.5432031154632568e+00" cType="0" res="-9.9000000000000000e+01" rms="0.0000000000000000e+00" purity="4.9562567472457886e-01" nType="0">
        <Node pos="l" depth="1" NCoef="0" IVar="1" Cut="2.1079557800292969e+02" cType="1" res="-9.9000000000000000e+01" rms="0.0000000000000000e+00" purity="5.1055115461349487e-01" nType="0">
          <Node pos="l" depth="2" NCoef="0" IVar="1" Cut="1.2875682067871094e+02" cType="1" res="-9.9000000000000000e+01" rms="0.0000000000000000e+00" purity="5.2049368619918823e-01" nType="0">
            <Node pos="l" depth="3" NCoef="0" IVar="-1" Cut="0.0000000000000000e+00" cType="1" res="-9.9000000000000000e+01" rms="0.0000000000000000e+00" purity="5.4551583528518677e-01" nType="1"/>
            <Node pos="r" depth="3" NCoef="0" IVar="3" Cut="2.0624477863311768e+00" cType="0" res="-9.9000000000000000e+01" rms="0.0000000000000000e+00" purity="4.8029968142509460e-01" nType="0">
              <Node pos="l" depth="4" NCoef="0" IVar="-1" Cut="0.0000000000000000e+00" cType="1" res="-9.9000000000000000e+01" rms="0.0000000000000000e+00" purity="5.5032384395599365e-01" nType="1"/>
              <Node pos="r" depth="4" NCoef="0" IVar="-1" Cut="0.0000000000000000e+00" cType="1" res="-9.9000000000000000e+01" rms="0.0000000000000000e+00" purity="3.9378058910369873e-01" nType="-1"/>
            </Node>
          </Node>
          <Node pos="r" depth="2" NCoef="0" IVar="5" Cut="2.8566474914550781e+00" cType="1" res="-9.9000000000000000e+01" rms="0.0000000000000000e+00" purity="4.8537328839302063e-01" nType="0">
            <Node pos="l" depth="3" NCoef="0" IVar="-1" Cut="0.0000000000000000e+00" cType="1" res="-9.9000000000000000e+01" rms="0.0000000000000000e+00" purity="5.3643643856048584e-01" nType="1"/>
            <Node pos="r" depth="3" NCoef="0" IVar="-1" Cut="3.0194761753082275e+00" cType="1" res="-9.9000000000000000e+01" rms="0.0000000000000000e+00" purity="4.5789951086044312e-01" nType="-1"/>
          </Node>
        </Node>
        <Node pos="r" depth="1" NCoef="0" IVar="5" Cut="1.0899792909622192e+00" cType="1" res="-9.9000000000000000e+01" rms="0.0000000000000000e+00" purity="4.7570237517356873e-01" nType="0">
          <Node pos="l" depth="2" NCoef="0" IVar="-1" Cut="0.0000000000000000e+00" cType="1" res="-9.9000000000000000e+01" rms="0.0000000000000000e+00" purity="5.1966208219528198e-01" nType="1"/>
          <Node pos="r" depth="2" NCoef="0" IVar="-1" Cut="1.9203938245773315e+00" cType="0" res="-9.9000000000000000e+01" rms="0.0000000000000000e+00" purity="4.6217873692512512e-01" nType="-1"/>
        </Node>
      </Node>
    </BinaryTree>
    <BinaryTree type="DecisionTree" boostWeight="6.9572064960510174e-02" itree="37">
      <Node pos="s" depth="0" NCoef="0" IVar="5" Cut="2.9919927120208740e+00" cType="0" res="-9.9000000000000000e+01" rms="0.0000000000000000e+00" purity="4.8990958929061890e-01" nType="0">
        <Node pos="l" depth="1" NCoef="0" IVar="0" Cut="9.0755737304687500e+01" cType="0" res="-9.9000000000000000e+01" rms="0.0000000000000000e+00" purity="5.2248013019561768e-01" nType="0">
          <Node pos="l" depth="2" NCoef="0" IVar="-1" Cut="0.0000000000000000e+00" cType="1" res="-9.9000000000000000e+01" rms="0.0000000000000000e+00" purity="5.4839795827865601e-01" nType="1"/>
          <Node pos="r" depth="2" NCoef="0" IVar="-1" Cut="0.0000000000000000e+00" cType="1" res="-9.9000000000000000e+01" rms="0.0000000000000000e+00" purity="4.7748616337776184e-01" nType="-1"/>
        </Node>
        <Node pos="r" depth="1" NCoef="0" IVar="3" Cut="1.5657473802566528e+00" cType="0" res="-9.9000000000000000e+01" rms="0.0000000000000000e+00" purity="4.8170232772827148e-01" nType="0">
          <Node pos="l" depth="2" NCoef="0" IVar="4" Cut="1.7491394042968750e+02" cType="1" res="-9.9000000000000000e+01" rms="0.0000000000000000e+00" purity="4.9150145053863525e-01" nType="0">
            <Node pos="l" depth="3" NCoef="0" IVar="0" Cut="9.6783866882324219e+01" cType="1" res="-9.9000000000000000e+01" rms="0.0000000000000000e+00" purity="5.0439983606338501e-01" nType="0">
              <Node pos="l" depth="4" NCoef="0" IVar="-1" Cut="0.0000000000000000e+00" cType="1" res="-9.9000000000000000e+01" rms="0.0000000000000000e+00" purity="5.1666444540023804e-01" nType="1"/>
              <Node pos="r" depth="4" NCoef="0" IVar="-1" Cut="0.0000000000000000e+00" cType="1" res="-9.9000000000000000e+01" rms="0.0000000000000000e+00" purity="4.6430575847625732e-01" nType="-1"/>
            </Node>
            <Node pos="r" depth="3" NCoef="0" IVar="5" Cut="2.5645625591278076e+00" cType="0" res="-9.9000000000000000e+01" rms="0.0000000000000000e+00" purity="4.5916414260864258e-01" nType="0">
              <Node pos="l" depth="4" NCoef="0" IVar="-1" Cut="0.0000000000000000e+00" cType="1" res="-9.9000000000000000e+01" rms="0.0000000000000000e+00" purity="5.0405228137969971e-01" nType="1"/>
              <Node pos="r" depth="4" NCoef="0" IVar="-1" Cut="0.0000000000000000e+00" cType="1" res="-9.9000000000000000e+01" rms="0.0000000000000000e+00" purity="4.1287371516227722e-01" nType="-1"/>
            </Node>
          </Node>
          <Node pos="r" depth="2" NCoef="0" IVar="-1" Cut="0.0000000000000000e+00" cType="1" res="-9.9000000000000000e+01" rms="0.0000000000000000e+00" purity="4.4446939229965210e-01" nType="-1"/>
        </Node>
      </Node>
    </BinaryTree>
    <BinaryTree type="DecisionTree" boostWeight="5.5926918975742541e-02" itree="38">
      <Node pos="s" depth="0" NCoef="0" IVar="-1" Cut="1.5626087188720703e+00" cType="1" res="-9.9000000000000000e+01" rms="0.0000000000000000e+00" purity="4.7206565737724304e-01" nType="-1"/>
    </BinaryTree>
    <BinaryTree type="DecisionTree" boostWeight="4.7599743864740876e-02" itree="39">
      <Node pos="s" depth="0" NCoef="0" IVar="3" Cut="2.6891169548034668e+00" cType="1" res="-9.9000000000000000e+01" rms="0.0000000000000000e+00" purity="4.9927428364753723e-01" nType="0">
        <Node pos="l" depth="1" NCoef="0" IVar="3" Cut="1.7271353006362915e+00" cType="0" res="-9.9000000000000000e+01" rms="0.0000000000000000e+00" purity="5.0283449888229370e-01" nType="0">
          <Node pos="l" depth="2" NCoef="0" IVar="2" Cut="1.3874893188476562e+02" cType="0" res="-9.9000000000000000e+01" rms="0.0000000000000000e+00" purity="5.1088619232177734e-01" nType="0">
            <Node pos="l" depth="3" NCoef="0" IVar="-1" Cut="0.0000000000000000e+00" cType="1" res="-9.9000000000000000e+01" rms="0.0000000000000000e+00" purity="5.4221856594085693e-01" nType="1"/>
            <Node pos="r" depth="3" NCoef="0" IVar="0" Cut="1.1852622985839844e+02" cType="1" res="-9.9000000000000000e+01" rms="0.0000000000000000e+00" purity="5.0592130422592163e-01" nType="0">
              <Node pos="l" depth="4" NCoef="0" IVar="-1" Cut="0.0000000000000000e+00" cType="1" res="-9.9000000000000000e+01" rms="0.0000000000000000e+00" purity="5.1490789651870728e-01" nType="1"/>
              <Node pos="r" depth="4" NCoef="0" IVar="-1" Cut="0.0000000000000000e+00" cType="1" res="-9.9000000000000000e+01" rms="0.0000000000000000e+00" purity="4.6492081880569458e-01" nType="-1"/>
            </Node>
          </Node>
          <Node pos="r" depth="2" NCoef="0" IVar="1" Cut="1.1145150756835938e+02" cType="1" res="-9.9000000000000000e+01" rms="0.0000000000000000e+00" purity="4.8733299970626831e-01" nType="0">
            <Node pos="l" depth="3" NCoef="0" IVar="-1" Cut="0.0000000000000000e+00" cType="1" res="-9.9000000000000000e+01" rms="0.0000000000000000e+00" purity="5.0895929336547852e-01" nType="1"/>
            <Node pos="r" depth="3" NCoef="0" IVar="-1" Cut="0.0000000000000000e+00" cType="1" res="-9.9000000000000000e+01" rms="0.0000000000000000e+00" purity="4.4926100969314575e-01" nType="-1"/>
          </Node>
        </Node>
        <Node pos="r" depth="1" NCoef="0" IVar="3" Cut="2.9296095371246338e+00" cType="0" res="-9.9000000000000000e+01" rms="0.0000000000000000e+00" purity="4.7877675294876099e-01" nType="0">
          <Node pos="l" depth="2" NCoef="0" IVar="-1" Cut="0.0000000000000000e+00" cType="1" res="-9.9000000000000000e+01" rms="0.0000000000000000e+00" purity="5.0851374864578247e-01" nType="1"/>
          <Node pos="r" depth="2" NCoef="0" IVar="-1" Cut="0.0000000000000000e+00" cType="1" res="-9.9000000000000000e+01" rms="0.0000000000000000e+00" purity="4.4077494740486145e-01" nType="-1"/>
        </Node>
      </Node>
    </BinaryTree>
    <BinaryTree type="DecisionTree" boostWeight="8.3000574046574321e-02" itree="40">
      <Node pos="s" depth="0" NCoef="0" IVar="1" Cut="2.6489019775390625e+02" cType="1" res="-9.9000000000000000e+01" rms="0.0000000000000000e+00" purity="4.9331539869308472e-01" nType="0">
        <Node pos="l" depth="1" NCoef="0" IVar="1" Cut="1.3620594787597656e+02" cType="1" res="-9.9000000000000000e+01" rms="0.0000000000000000e+00" purity="4.9931663274765015e-01" nType="0">
          <Node pos="l" depth="2" NCoef="0" IVar="4" Cut="1.0898071289062500e+02" cType="0" res="-9.9000000000000000e+01" rms="0.0000000000000000e+00" purity="5.2176213264465332e-01" nType="0">
            <Node pos="l" depth="3" NCoef="0" IVar="3" Cut="1.7001259326934814e+00" cType="1" res="-9.9000000000000000e+01" rms="0.0000000000000000e+00" purity="5.5540806055068970e-01" nType="0">
              <Node pos="l" depth="4" NCoef="0" IVar="-1" Cut="0.0000000000000000e+00" cType="1" res="-9.9000000000000000e+01" rms="0.0000000000000000e+00" purity="5.9282517433166504e-01" nType="1"/>
              <Node pos="r" depth="4" NCoef="0" IVar="-1" Cut="0.0000000000000000e+00" cType="1" res="-9.9000000000000000e+01" rms="0.0000000000000000e+00" purity="4.9156662821769714e-01" nType="-1"/>
            </Node>
